{"learner":{"attributes":{"scikit_learn":"{\"_estimator_type\": \"classifier\"}"},"feature_names":["Time_spent_Alone","Stage_fear","Social_event_attendance","Going_outside","Drained_after_socializing","Friends_circle_size","Post_frequency"],"feature_types":["float","int","float","float","int","float","float"],"gradient_booster":{"model":{"gbtree_model_param":{"num_parallel_tree":"1","num_trees":"100"},"iteration_indptr":[0,1,2,3,4,5,6,7,8,9,10,11,12,13,14,15,16,17,18,19,20,21,22,23,24,25,26,27,28,29,30,31,32,33,34,35,36,37,38,39,40,41,42,43,44,45,46,47,48,49,50,51,52,53,54,55,56,57,58,59,60,61,62,63,64,65,66,67,68,69,70,71,72,73,74,75,76,77,78,79,80,81,82,83,84,85,86,87,88,89,90,91,92,93,94,95,96,97,98,99,100],"tree_info":[0,0,0,0,0,0,0,0,0,0,0,0,0,0,0,0,0,0,0,0,0,0,0,0,0,0,0,0,0,0,0,0,0,0,0,0,0,0,0,0,0,0,0,0,0,0,0,0,0,0,0,0,0,0,0,0,0,0,0,0,0,0,0,0,0,0,0,0,0,0,0,0,0,0,0,0,0,0,0,0,0,0,0,0,0,0,0,0,0,0,0,0,0,0,0,0,0,0,0,0],"trees":[{"base_weights":[3.6195503E-5,1.669317E0,-1.7186416E0,5.1468486E-1,1.3408878E0,-5.796967E-1,-1.5854425E0,5.1950306E-1,1.0096357E0,-1.4910634E0,-5.7477516E-1,4.5252267E-1,7.2374356E-1,-1.3483931E0,-5.2717865E-1,4.2379478E-1,4.6922043E-1,-1.3943664E0,-9.72992E-1,-4.489632E-2,2.5309297E-1,-3.3929685E-1,-4.5232013E-1,-1.691226E-1,-3.492431E-1],"categories":[],"categories_nodes":[],"categories_segments":[],"categories_sizes":[],"default_left":[0,0,0,0,0,0,0,0,0,0,0,0,0,0,0,0,0,0,0,0,0,0,0,0,0],"id":0,"left_children":[1,3,5,-1,7,-1,9,-1,11,13,-1,-1,15,17,-1,-1,19,21,23,-1,-1,-1,-1,-1,-1],"loss_changes":[1.4245537E3,1.5297852E0,3.8995972E0,0E0,2.873024E0,0E0,2.0175781E0,0E0,2.0055084E0,2.4184875E0,0E0,0E0,2.0950956E0,1.3404846E-1,0E0,0E0,3.1346433E0,5.2352905E-1,3.3982468E-1,0E0,0E0,0E0,0E0,0E0,0E0],"parents":[2147483647,0,0,1,1,2,2,4,4,6,6,8,8,9,9,12,12,13,13,16,16,17,17,18,18],"right_children":[2,4,6,-1,8,-1,10,-1,12,14,-1,-1,16,18,-1,-1,20,22,24,-1,-1,-1,-1,-1,-1],"split_conditions":[1E0,1.7663522E0,7.098194E-1,5.1468486E-1,7.108088E-1,-5.796967E-1,-3.2386705E-1,5.1950306E-1,6.403428E-1,-5.19617E-1,-5.7477516E-1,4.5252267E-1,4.9215832E-1,1.8558012E0,-5.2717865E-1,4.2379478E-1,1.175497E0,-8.922995E-1,-1.013651E0,-4.489632E-2,2.5309297E-1,-3.3929685E-1,-4.5232013E-1,-1.691226E-1,-3.492431E-1],"split_indices":[1,3,0,0,2,0,2,0,5,5,0,0,6,0,0,0,6,3,2,0,0,0,0,0,0],"split_type":[0,0,0,0,0,0,0,0,0,0,0,0,0,0,0,0,0,0,0,0,0,0,0,0,0],"sum_hessian":[4.945408E2,2.5089021E2,2.4365059E2,2.1618997E2,3.4700237E1,8.837327E1,1.5527733E2,1.3979952E1,2.0720285E1,1.2507064E2,3.0206682E1,5.991408E0,1.4728878E1,8.537756E1,3.9693077E1,2.746062E0,1.1982816E1,7.364439E1,1.1733174E1,4.743198E0,7.239618E0,2.5463484E1,4.8180904E1,4.99284E0,6.740334E0],"tree_param":{"num_deleted":"0","num_feature":"7","num_nodes":"25","size_leaf_vector":"1"}},{"base_weights":[2.7513697E-3,1.2912623E0,-1.2797054E0,4.332981E-1,1.1914932E0,-4.3628106E-1,-1.1736354E0,1.0766814E0,4.44639E-1,-1.0971999E0,-4.351869E-1,4.2797E-1,9.4949E-1,-1.021306E0,-4.3448493E-1,4.1055402E-1,8.1243205E-1,-8.6715835E-1,-3.262995E-1,3.6794293E-1,1.8396285E-1,-1.887748E-1,-2.8476045E-1],"categories":[],"categories_nodes":[],"categories_segments":[],"categories_sizes":[],"default_left":[0,0,0,0,0,0,0,0,0,0,0,0,0,0,0,0,0,0,0,0,0,0,0],"id":1,"left_children":[1,3,5,-1,7,-1,9,11,-1,13,-1,-1,15,17,-1,-1,19,21,-1,-1,-1,-1,-1],"loss_changes":[7.702082E2,1.8296204E0,2.6185608E0,0E0,3.2915955E0,0E0,1.5944824E0,3.480545E0,0E0,1.7728119E0,0E0,0E0,3.6360245E0,1.1803436E-1,0E0,0E0,4.5894547E0,1.0838699E-1,0E0,0E0,0E0,0E0,0E0],"parents":[2147483647,0,0,1,1,2,2,4,4,6,6,7,7,9,9,12,12,13,13,16,16,17,17],"right_children":[2,4,6,-1,8,-1,10,12,-1,14,-1,-1,16,18,-1,-1,20,22,-1,-1,-1,-1,-1],"split_conditions":[1E0,8.80135E-1,7.098194E-1,4.332981E-1,-4.3616244E-1,-4.3628106E-1,-3.2386705E-1,4.9215832E-1,4.44639E-1,-2.8762507E-1,-4.351869E-1,4.2797E-1,4.083508E-1,-8.922995E-1,-4.3448493E-1,4.1055402E-1,7.108088E-1,-1.013651E0,-3.262995E-1,3.6794293E-1,1.8396285E-1,-1.887748E-1,-2.8476045E-1],"split_indices":[1,3,0,0,0,0,2,6,0,5,0,0,5,3,0,0,2,2,0,0,0,0,0],"split_type":[0,0,0,0,0,0,0,0,0,0,0,0,0,0,0,0,0,0,0,0,0,0,0],"sum_hessian":[4.640981E2,2.3149919E2,2.325989E2,8.603245E1,1.4546675E2,8.311E1,1.494889E2,1.0764697E2,3.781977E1,1.2104689E2,2.8442019E1,2.5975689E1,8.167128E1,1.0274537E2,1.830152E1,1.7915089E1,6.3756195E1,3.5153522E1,6.759185E1,1.903644E1,4.4719753E1,1.1237289E1,2.3916235E1],"tree_param":{"num_deleted":"0","num_feature":"7","num_nodes":"23","size_leaf_vector":"1"}},{"base_weights":[5.33586E-3,1.0777212E0,-1.0367093E0,3.6979383E-1,9.810166E-1,-3.6588567E-1,-9.322617E-1,8.737871E-1,3.8021678E-1,-8.5852575E-1,-3.661901E-1,3.655398E-1,7.565651E-1,-7.4679357E-1,-3.259264E-1,3.4895962E-1,6.331485E-1,-7.8393775E-1,-4.755E-1,3.0628264E-1,1.3833235E-1,-2.6885408E-1,-1.7499956E-1,-1.8849225E-1,-4.7108993E-2],"categories":[],"categories_nodes":[],"categories_segments":[],"categories_sizes":[],"default_left":[0,0,0,0,0,0,0,0,0,0,0,0,0,0,0,0,0,0,0,0,0,0,0,0,0],"id":2,"left_children":[1,3,5,-1,7,-1,9,11,-1,13,-1,-1,15,17,-1,-1,19,21,23,-1,-1,-1,-1,-1,-1],"loss_changes":[4.5913242E2,1.8243408E0,2.8440552E0,0E0,2.8711853E0,0E0,1.8627014E0,3.0170135E0,0E0,2.050293E0,0E0,0E0,3.04673E0,4.193802E-1,0E0,0E0,3.533989E0,9.9936295E-1,4.8571563E-1,0E0,0E0,0E0,0E0,0E0,0E0],"parents":[2147483647,0,0,1,1,2,2,4,4,6,6,7,7,9,9,12,12,13,13,16,16,17,17,18,18],"right_children":[2,4,6,-1,8,-1,10,12,-1,14,-1,-1,16,18,-1,-1,20,22,24,-1,-1,-1,-1,-1,-1],"split_conditions":[1E0,8.80135E-1,7.098194E-1,3.6979383E-1,-4.3616244E-1,-3.6588567E-1,-3.2386705E-1,4.9215832E-1,3.8021678E-1,-5.19617E-1,-3.661901E-1,3.655398E-1,4.083508E-1,1.8558012E0,-3.259264E-1,3.4895962E-1,7.108088E-1,-6.68759E-1,-7.5160897E-1,3.0628264E-1,1.3833235E-1,-2.6885408E-1,-1.7499956E-1,-1.8849225E-1,-4.7108993E-2],"split_indices":[1,3,0,0,0,0,2,6,0,5,0,0,5,0,0,0,2,2,5,0,0,0,0,0,0],"split_type":[0,0,0,0,0,0,0,0,0,0,0,0,0,0,0,0,0,0,0,0,0,0,0,0,0],"sum_hessian":[4.088665E2,2.0148293E2,2.0738356E2,7.291829E1,1.2856464E2,7.149825E1,1.358853E2,9.648716E1,3.207748E1,1.11382286E2,2.450301E1,2.2102518E1,7.438464E1,7.7609146E1,3.377314E1,1.5358017E1,5.9026623E1,6.660086E1,1.10082855E1,1.6622915E1,4.240371E1,4.0482708E1,2.6118155E1,6.7815065E0,4.226779E0],"tree_param":{"num_deleted":"0","num_feature":"7","num_nodes":"25","size_leaf_vector":"1"}},{"base_weights":[7.2368174E-3,9.266256E-1,-8.6537415E-1,8.481485E-1,3.4504434E-1,-1.0675961E0,-7.5855654E-1,3.2058144E-1,7.213829E-1,-6.3361484E-1,-3.3038175E-1,-6.8542373E-1,-3.217157E-1,3.249294E-1,6.093321E-1,-1.47169605E-2,-2.4568415E-1,-6.138033E-1,-3.215809E-1,1.0238869E0,4.9557626E-1,-4.6782085E-1,-6.835728E-1,1.4855103E-1,3.4231615E-1,2.6098317E-1,1.0367047E-1,-7.486528E-2,-1.8022E-1,-1.5567993E-1,-2.2471304E-1],"categories":[],"categories_nodes":[],"categories_segments":[],"categories_sizes":[],"default_left":[0,0,0,0,0,0,0,0,0,0,0,0,0,0,0,0,0,0,0,0,0,0,0,0,0,0,0,0,0,0,0],"id":3,"left_children":[1,3,5,7,-1,9,11,-1,13,15,-1,17,-1,-1,19,-1,-1,21,-1,23,25,27,29,-1,-1,-1,-1,-1,-1,-1,-1],"loss_changes":[2.8420886E2,2.0503998E0,3.1162567E0,2.9036026E0,0E0,1.8448639E-1,2.0738983E0,0E0,2.8482819E0,6.8590856E-1,0E0,2.1664238E0,0E0,0E0,2.7168941E0,0E0,0E0,5.8076096E-1,0E0,2.8887177E-1,2.821125E0,7.7149534E-1,2.3279E-1,0E0,0E0,0E0,0E0,0E0,0E0,0E0,0E0],"parents":[2147483647,0,0,1,1,2,2,3,3,5,5,6,6,8,8,9,9,11,11,14,14,17,17,19,19,20,20,21,21,22,22],"right_children":[2,4,6,8,-1,10,12,-1,14,16,-1,18,-1,-1,20,-1,-1,22,-1,24,26,28,30,-1,-1,-1,-1,-1,-1,-1,-1],"split_conditions":[1E0,-4.3616244E-1,7.098194E-1,8.80135E-1,3.4504434E-1,-1.2155929E0,-3.2386705E-1,3.2058144E-1,4.9215832E-1,-8.922995E-1,-3.3038175E-1,-2.8762507E-1,-3.217157E-1,3.249294E-1,4.083508E-1,-1.47169605E-2,-2.4568415E-1,-8.922995E-1,-3.215809E-1,3.6591685E-1,7.108088E-1,1.2828102E0,-8.74519E-1,1.4855103E-1,3.4231615E-1,2.6098317E-1,1.0367047E-1,-7.486528E-2,-1.8022E-1,-1.5567993E-1,-2.2471304E-1],"split_indices":[1,0,0,3,0,5,2,0,6,3,0,5,0,0,5,0,0,3,0,2,2,0,6,0,0,0,0,0,0,0,0],"split_type":[0,0,0,0,0,0,0,0,0,0,0,0,0,0,0,0,0,0,0,0,0,0,0,0,0,0,0,0,0,0,0],"sum_hessian":[3.522569E2,1.715007E2,1.807562E2,1.304834E2,4.101731E1,5.9368343E1,1.2138785E2,4.4925083E1,8.5558304E1,5.7020445E0,5.36663E1,1.01028786E2,2.0359062E1,1.8185846E1,6.737246E1,1.6770719E0,4.0249724E0,8.7418304E1,1.3610482E1,1.2783914E1,5.4588547E1,3.0760891E1,5.6657413E1,3.2671335E0,9.51678E0,1.42431965E1,4.0345352E1,1.2731186E1,1.8029705E1,1.8659748E1,3.7997665E1],"tree_param":{"num_deleted":"0","num_feature":"7","num_nodes":"31","size_leaf_vector":"1"}},{"base_weights":[8.137851E-3,8.044159E-1,-7.285138E-1,1.0596718E0,7.217566E-1,-9.532447E-1,-6.19769E-1,7.136675E-1,3.4048843E-1,2.8746772E-1,5.997363E-1,-7.7242893E-1,-3.2296652E-1,-5.4843146E-1,-2.8795105E-1,2.9256E-1,1.9673301E-1,4.9336764E-1,9.820744E-1,-2.771762E-1,-4.5526785E-1,-4.8104802E-1,-9.5308274E-1,-1.6749024E-1,2.3141842E-1,8.445579E-1,3.546478E-1,3.226459E-1,5.3757995E-1,-2.4617268E-1,6.762672E-2,-5.4996675E-1,-3.5160294E-1,-3.2434195E-1,-1.3567623E-1,1.1431994E-2,2.9584858E-1,2.3707084E-1,7.707862E-2,-2.0952024E-2,2.4961422E-1,-9.389856E-2,1.9295505E-1,-2.6170856E-1,-1.3436708E-1,-5.2132074E-2,-1.715967E-1],"categories":[],"categories_nodes":[],"categories_segments":[],"categories_sizes":[],"default_left":[0,0,0,0,0,0,0,0,0,0,0,0,0,0,0,0,0,0,0,0,0,0,0,0,0,0,0,0,0,0,0,0,0,0,0,0,0,0,0,0,0,0,0,0,0,0,0],"id":4,"left_children":[1,3,5,7,9,11,13,15,-1,-1,17,19,-1,21,-1,-1,23,25,27,-1,29,31,33,-1,-1,35,37,-1,39,-1,41,43,45,-1,-1,-1,-1,-1,-1,-1,-1,-1,-1,-1,-1,-1,-1],"loss_changes":[1.7877702E2,2.3253021E0,3.2783508E0,6.7653656E-2,2.7079659E0,2.7812576E-1,2.1313095E0,9.8633194E-1,0E0,0E0,2.6761265E0,7.1902084E-1,0E0,2.0743237E0,0E0,0E0,2.2445414E0,2.7604523E0,8.2265854E-2,0E0,1.8966545E0,5.350323E-1,2.961197E-1,0E0,0E0,1.9107628E0,1.7868838E0,0E0,9.097904E-1,0E0,1.2721591E0,1.3043671E0,1.1210217E0,0E0,0E0,0E0,0E0,0E0,0E0,0E0,0E0,0E0,0E0,0E0,0E0,0E0,0E0],"parents":[2147483647,0,0,1,1,2,2,3,3,4,4,5,5,6,6,7,7,10,10,11,11,13,13,16,16,17,17,18,18,20,20,21,21,22,22,25,25,26,26,28,28,30,30,31,31,32,32],"right_children":[2,4,6,8,10,12,14,16,-1,-1,18,20,-1,22,-1,-1,24,26,28,-1,30,32,34,-1,-1,36,38,-1,40,-1,42,44,46,-1,-1,-1,-1,-1,-1,-1,-1,-1,-1,-1,-1,-1,-1],"split_conditions":[1E0,4.083508E-1,7.098194E-1,3.6591685E-1,8.80135E-1,-7.5160897E-1,-3.2386705E-1,1.175497E0,3.4048843E-1,2.8746772E-1,-4.3616244E-1,-5.3284967E-1,-3.2296652E-1,-2.8762507E-1,-2.8795105E-1,2.9256E-1,1.3232436E0,7.108088E-1,1.7663522E0,-2.771762E-1,-6.68759E-1,-6.68759E-1,-4.4919086E-1,-1.6749024E-1,2.3141842E-1,6.403428E-1,4.9215832E-1,3.226459E-1,8.338277E-1,-2.4617268E-1,4.2332393E-1,9.963148E-1,-7.5160897E-1,-3.2434195E-1,-1.3567623E-1,1.1431994E-2,2.9584858E-1,2.3707084E-1,7.707862E-2,-2.0952024E-2,2.4961422E-1,-9.389856E-2,1.9295505E-1,-2.6170856E-1,-1.3436708E-1,-5.2132074E-2,-1.715967E-1],"split_indices":[1,5,0,2,3,5,2,6,0,0,0,6,0,5,0,0,3,2,3,0,2,2,3,0,0,5,6,0,6,0,0,0,5,0,0,0,0,0,0,0,0,0,0,0,0,0,0],"split_type":[0,0,0,0,0,0,0,0,0,0,0,0,0,0,0,0,0,0,0,0,0,0,0,0,0,0,0,0,0,0,0,0,0,0,0,0,0,0,0,0,0,0,0,0,0,0,0],"sum_hessian":[3.0277975E2,1.4545706E2,1.5732271E2,3.268976E1,1.127673E2,4.8769753E1,1.0855295E2,7.7147026E0,2.4975056E1,3.6050426E1,7.671688E1,2.2719374E1,2.6050379E1,9.188957E1,1.6663378E1,4.534207E0,3.1804957E0,6.1811085E1,1.4905794E1,1.4080663E1,8.638711E0,8.064859E1,1.1240983E1,1.3868362E0,1.7936596E0,1.6061287E1,4.5749798E1,1.1144226E1,3.761568E0,4.7505555E0,3.888156E0,5.0508404E1,3.0140184E1,8.029274E0,3.2117095E0,2.5885122E0,1.34727745E1,7.084303E0,3.8665493E1,1.4772205E0,2.2843473E0,2.6150093E0,1.2731466E0,1.0331521E1,4.017688E1,1.7670425E1,1.2469759E1],"tree_param":{"num_deleted":"0","num_feature":"7","num_nodes":"47","size_leaf_vector":"1"}},{"base_weights":[8.98666E-3,6.9955325E-1,-6.131391E-1,6.1269087E-1,2.958845E-1,-8.576115E-1,-5.05391E-1,2.6018006E-1,4.924732E-1,-6.6931075E-1,-2.988129E-1,-4.419977E-1,-2.7287802E-1,9.0171564E-1,3.9000878E-1,-2.471806E-1,-3.7502673E-1,-3.7515464E-1,-8.151102E-1,2.8729415E-1,7.7599525E-2,8.2686466E-1,2.9525754E-1,2.473587E-1,-6.724322E-1,-2.4421632E-1,-4.434196E-1,-2.978965E-1,-4.6301717E-1,1.0048201E-1,2.9081795E-1,1.8839082E-1,5.67895E-2,-9.771966E-2,2.5555402E-1,-4.579384E-2,-2.2588767E-1,3.426816E-4,-1.0662678E-1,-1.6832864E-1,-9.5183E-2,2.2671591E-2,-2.0065403E-1],"categories":[],"categories_nodes":[],"categories_segments":[],"categories_sizes":[],"default_left":[0,0,0,0,0,0,0,0,0,0,0,0,0,0,0,0,0,0,0,0,0,0,0,0,0,0,0,0,0,0,0,0,0,0,0,0,0,0,0,0,0,0,0],"id":5,"left_children":[1,3,5,7,-1,9,11,-1,13,15,-1,17,-1,19,21,-1,23,25,27,-1,-1,29,31,33,35,37,39,-1,41,-1,-1,-1,-1,-1,-1,-1,-1,-1,-1,-1,-1,-1,-1],"loss_changes":[1.1373204E2,2.5203247E0,3.2352066E0,2.6005096E0,0E0,4.065094E-1,2.1373367E0,0E0,2.5630493E0,6.234455E-1,0E0,1.8792515E0,0E0,2.2548485E-1,2.129856E0,0E0,1.812559E0,5.724106E-1,3.2048988E-1,0E0,0E0,3.5309172E-1,1.5975008E0,1.5269501E0,1.4821362E-1,7.7321374E-1,5.468197E-1,0E0,7.2180426E-1,0E0,0E0,0E0,0E0,0E0,0E0,0E0,0E0,0E0,0E0,0E0,0E0,0E0,0E0],"parents":[2147483647,0,0,1,1,2,2,3,3,5,5,6,6,8,8,9,9,11,11,13,13,14,14,16,16,17,17,18,18,21,21,22,22,23,23,24,24,25,25,26,26,28,28],"right_children":[2,4,6,8,-1,10,12,-1,14,16,-1,18,-1,20,22,-1,24,26,28,-1,-1,30,32,34,36,38,40,-1,42,-1,-1,-1,-1,-1,-1,-1,-1,-1,-1,-1,-1,-1,-1],"split_conditions":[1E0,-4.3616244E-1,7.098194E-1,8.80135E-1,2.958845E-1,-7.5160897E-1,-2.8762507E-1,2.6018006E-1,4.9215832E-1,-5.3284967E-1,-2.988129E-1,-3.2386705E-1,-2.7287802E-1,1.8003025E0,4.083508E-1,-2.471806E-1,-8.922995E-1,-8.922995E-1,-7.5160897E-1,2.8729415E-1,7.7599525E-2,3.6591685E-1,7.108088E-1,-6.68759E-1,-1.2155929E0,-1.013651E0,-4.4919086E-1,-2.978965E-1,-8.74519E-1,1.0048201E-1,2.9081795E-1,1.8839082E-1,5.67895E-2,-9.771966E-2,2.5555402E-1,-4.579384E-2,-2.2588767E-1,3.426816E-4,-1.0662678E-1,-1.6832864E-1,-9.5183E-2,2.2671591E-2,-2.0065403E-1],"split_indices":[1,0,0,3,0,5,5,0,6,6,0,2,0,5,5,0,3,3,5,0,0,2,2,2,5,2,3,0,6,0,0,0,0,0,0,0,0,0,0,0,0,0,0],"split_type":[0,0,0,0,0,0,0,0,0,0,0,0,0,0,0,0,0,0,0,0,0,0,0,0,0,0,0,0,0,0,0,0,0,0,0,0,0,0,0,0,0,0,0],"sum_hessian":[2.6272913E2,1.24456535E2,1.382726E2,9.792705E1,2.6529484E1,4.0170147E1,9.810246E1,2.9417562E1,6.850949E1,1.9491661E1,2.0678486E1,8.661211E1,1.1490349E1,1.2156443E1,5.6353046E1,1.15979805E1,7.8936796E0,7.5153786E1,1.1458321E1,1.0733624E1,1.4228188E0,8.66694E0,4.7686108E1,2.6067557E0,5.2869244E0,2.7323107E1,4.7830685E1,6.403179E0,5.0551414E0,2.6995752E0,5.967365E0,1.0328405E1,3.73577E1,1.5748485E0,1.0319072E0,1.0976137E0,4.1893106E0,8.830273E0,1.8492834E1,2.2961931E1,2.4868752E1,1.5727108E0,3.482431E0],"tree_param":{"num_deleted":"0","num_feature":"7","num_nodes":"43","size_leaf_vector":"1"}},{"base_weights":[7.843057E-3,6.011277E-1,-5.1135606E-1,9.248845E-1,5.1141804E-1,-7.703665E-1,-4.0795705E-1,5.306101E-1,3.091641E-1,5.925213E-1,1.4767806E-1,-5.764868E-1,-2.7772343E-1,-3.435712E-1,-2.3609808E-1,2.524489E-1,4.5861155E-2,4.9696007E-1,9.456359E-1,-2.3627397E-1,4.6558765E-1,-7.7480555E-1,-3.428005E-1,-2.5048196E-1,-5.956215E-1,-1.7940888E-1,1.9874056E-1,6.146465E-1,2.620624E-1,3.024671E-1,6.909553E-2,1.3028745E-1,-5.239198E-1,7.94162E-1,1.5288794E-1,-2.8610972E-1,-6.3496225E-2,-6.251778E-1,1.0572629E-1,-5.7824E-1,-2.0046607E-1,-3.7255943E-1,-2.7131167E-1,2.1139602E-1,1.0532386E-1,1.3169253E-1,-1.12430476E-1,-2.6246247E-1,-1.4746186E-2,2.799456E-1,6.1467003E-2,-9.0628214E-2,2.4230547E-1,-6.370282E-2,-2.0808423E-1,1.9718908E-1,-8.0644354E-2,-8.818888E-2,-2.1984187E-1,-8.378262E-2,-1.345003E-2,-3.1882256E-2,-2.2314624E-1],"categories":[],"categories_nodes":[],"categories_segments":[],"categories_sizes":[],"default_left":[0,0,0,0,0,0,0,0,0,0,0,0,0,0,0,0,0,0,0,0,0,0,0,0,0,0,0,0,0,0,0,0,0,0,0,0,0,0,0,0,0,0,0,0,0,0,0,0,0,0,0,0,0,0,0,0,0,0,0,0,0,0,0],"id":6,"left_children":[1,3,5,7,9,11,13,15,-1,17,19,21,-1,23,-1,-1,25,27,29,31,33,35,37,39,41,-1,-1,43,45,-1,-1,-1,47,49,51,-1,-1,53,55,57,59,61,-1,-1,-1,-1,-1,-1,-1,-1,-1,-1,-1,-1,-1,-1,-1,-1,-1,-1,-1,-1,-1],"loss_changes":[7.162163E1,2.6785278E0,3.0067978E0,3.8245392E-1,2.4850063E0,4.982319E-1,1.9443798E0,9.825311E-1,0E0,1.9249306E0,2.2132065E0,5.634904E-1,0E0,1.7125988E0,0E0,0E0,1.8672469E0,1.4412794E0,3.9493942E-1,1.8608847E0,8.816409E-1,6.931286E-1,1.3334119E0,8.6231637E-1,1.0870337E0,0E0,0E0,6.510639E-1,2.5406332E0,0E0,0E0,0E0,1.01991E0,1.7917538E-1,2.1031852E0,0E0,0E0,3.0286074E-2,1.1520058E0,1.08412504E-1,6.4126396E-1,1.275773E0,0E0,0E0,0E0,0E0,0E0,0E0,0E0,0E0,0E0,0E0,0E0,0E0,0E0,0E0,0E0,0E0,0E0,0E0,0E0,0E0,0E0],"parents":[2147483647,0,0,1,1,2,2,3,3,4,4,5,5,6,6,7,7,9,9,10,10,11,11,13,13,16,16,17,17,18,18,19,19,20,20,21,21,22,22,23,23,24,24,27,27,28,28,32,32,33,33,34,34,37,37,38,38,39,39,40,40,41,41],"right_children":[2,4,6,8,10,12,14,16,-1,18,20,22,-1,24,-1,-1,26,28,30,32,34,36,38,40,42,-1,-1,44,46,-1,-1,-1,48,50,52,-1,-1,54,56,58,60,62,-1,-1,-1,-1,-1,-1,-1,-1,-1,-1,-1,-1,-1,-1,-1,-1,-1,-1,-1,-1,-1],"split_conditions":[1E0,4.083508E-1,7.098194E-1,3.6591685E-1,1.7663522E0,-7.5160897E-1,-3.2386705E-1,1.175497E0,3.091641E-1,-4.3616244E-1,1.175497E0,-6.68759E-1,-2.7772343E-1,-5.19617E-1,-2.3609808E-1,2.524489E-1,-7.2265786E-1,-7.2265786E-1,1.8588357E0,4.9215832E-1,8.723347E-1,-9.836009E-1,-5.3284967E-1,-1.2155929E0,-5.3284967E-1,-1.7940888E-1,1.9874056E-1,1.5171664E0,1.8003025E0,3.024671E-1,6.909553E-2,1.3028745E-1,-7.2265786E-1,-7.2265786E-1,-7.2265786E-1,-2.8610972E-1,-6.3496225E-2,1.3682847E-1,-8.922995E-1,-1.013651E0,1.5693058E0,-2.8762507E-1,-2.7131167E-1,2.1139602E-1,1.0532386E-1,1.3169253E-1,-1.12430476E-1,-2.6246247E-1,-1.4746186E-2,2.799456E-1,6.1467003E-2,-9.0628214E-2,2.4230547E-1,-6.370282E-2,-2.0808423E-1,1.9718908E-1,-8.0644354E-2,-8.818888E-2,-2.1984187E-1,-8.378262E-2,-1.345003E-2,-3.1882256E-2,-2.2314624E-1],"split_indices":[1,5,0,2,3,5,2,6,0,0,6,2,0,5,0,0,0,0,6,6,5,5,6,5,6,0,0,6,5,0,0,0,0,0,0,0,0,0,3,2,0,5,0,0,0,0,0,0,0,0,0,0,0,0,0,0,0,0,0,0,0,0,0],"split_type":[0,0,0,0,0,0,0,0,0,0,0,0,0,0,0,0,0,0,0,0,0,0,0,0,0,0,0,0,0,0,0,0,0,0,0,0,0,0,0,0,0,0,0,0,0,0,0,0,0,0,0,0,0,0,0,0,0,0,0,0,0,0,0],"sum_hessian":[2.3051508E2,1.0750835E2,1.2300672E2,2.1306105E1,8.620225E1,3.3254658E1,8.975207E1,5.775789E0,1.5530316E1,6.9971664E1,1.6230583E1,1.6889854E1,1.6364803E1,7.834949E1,1.14025755E1,3.0705786E0,2.70521E0,5.6963375E1,1.3008285E1,7.4679875E0,8.762596E0,7.8837233E0,9.006131E0,5.8673504E1,1.9675983E1,1.3380663E0,1.3671436E0,3.687295E1,2.0090424E1,1.1585149E1,1.4231355E0,2.0887773E0,5.3792105E0,3.5220497E0,5.2405467E0,5.4567895E0,2.4269338E0,5.285017E0,3.7211146E0,6.3699017E0,5.2303604E1,1.2704251E1,6.971733E0,2.6238949E1,1.0634004E1,1.5965787E1,4.1246367E0,2.6083348E0,2.7708757E0,2.3776681E0,1.1443815E0,3.4098654E0,1.8306811E0,1.3349351E0,3.9500818E0,1.199589E0,2.5215256E0,3.2656322E0,3.1042693E0,3.419399E1,1.8109615E1,8.147064E0,4.557187E0],"tree_param":{"num_deleted":"0","num_feature":"7","num_nodes":"63","size_leaf_vector":"1"}},{"base_weights":[6.6100117E-3,5.125814E-1,-4.2472604E-1,8.660261E-1,4.2450398E-1,-6.9042593E-1,-3.284678E-1,4.6899617E-1,2.9653725E-1,7.246845E-1,3.0619082E-1,-2.226811E-1,-7.449857E-1,-2.7713165E-1,-7.4208003E-1,5.3467553E-2,2.3797889E-1,1.9225608E-1,8.1549996E-1,2.1588844E-1,7.569664E-1,8.319063E-2,-1.4501533E-1,-5.580712E-1,-8.5901237E-1,-2.2555484E-1,-6.397874E-1,-2.728504E-1,-2.779301E-1,1.900639E-1,-1.6720775E-1,-6.9578625E-2,1.9433038E-1,3.933645E-2,2.7123407E-1,2.5241706E-1,1.5250611E-1,8.370962E-1,1.3865622E-2,-2.4337275E-1,-3.994895E-1,-2.9151514E-1,-4.5627692E-1,-2.9892355E-1,-9.9049054E-2,-2.632088E-1,-2.5017974E-1,-1.7191889E-2,-1.01244755E-1,3.026164E-2,2.5395414E-1,2.7592576E-1,5.7039503E-2,-1.4928931E-1,1.4911392E-2,-1.9849934E-2,-2.1225502E-1,-1.8854174E-1,-6.221477E-2,4.5438707E-2,-8.651963E-2,6.4776815E-2,-1.4754304E-1],"categories":[],"categories_nodes":[],"categories_segments":[],"categories_sizes":[],"default_left":[0,0,0,0,0,0,0,0,0,0,0,0,0,0,0,0,0,0,0,0,0,0,0,0,0,0,0,0,0,0,0,0,0,0,0,0,0,0,0,0,0,0,0,0,0,0,0,0,0,0,0,0,0,0,0,0,0,0,0,0,0,0,0],"id":7,"left_children":[1,3,5,7,9,11,13,15,-1,17,19,21,23,25,27,29,-1,31,33,35,37,-1,-1,39,41,43,45,-1,47,-1,-1,-1,-1,-1,-1,-1,49,51,-1,-1,53,-1,55,57,59,-1,61,-1,-1,-1,-1,-1,-1,-1,-1,-1,-1,-1,-1,-1,-1,-1,-1],"loss_changes":[4.5393944E1,2.611908E0,2.6450691E0,4.1777325E-1,2.5688887E0,5.730152E-1,1.5850258E0,7.897899E-1,0E0,8.820133E-1,2.2014375E0,7.14203E-1,6.416416E-2,1.2888083E0,4.2448807E-1,1.6922772E0,0E0,1.0079383E0,9.757824E-1,1.8460042E0,4.9078465E-1,0E0,0E0,1.7847705E-1,1.9143677E-1,6.073201E-1,6.131227E-1,0E0,2.9935628E-2,0E0,0E0,0E0,0E0,0E0,0E0,0E0,1.5787083E0,2.6878405E-1,0E0,0E0,4.508916E-1,0E0,4.3768227E-1,1.1649764E0,1.3094758E0,0E0,6.475017E-1,0E0,0E0,0E0,0E0,0E0,0E0,0E0,0E0,0E0,0E0,0E0,0E0,0E0,0E0,0E0,0E0],"parents":[2147483647,0,0,1,1,2,2,3,3,4,4,5,5,6,6,7,7,9,9,10,10,11,11,12,12,13,13,14,14,15,15,17,17,18,18,19,19,20,20,23,23,24,24,25,25,26,26,28,28,36,36,37,37,40,40,42,42,43,43,44,44,46,46],"right_children":[2,4,6,8,10,12,14,16,-1,18,20,22,24,26,28,30,-1,32,34,36,38,-1,-1,40,42,44,46,-1,48,-1,-1,-1,-1,-1,-1,-1,50,52,-1,-1,54,-1,56,58,60,-1,62,-1,-1,-1,-1,-1,-1,-1,-1,-1,-1,-1,-1,-1,-1,-1,-1],"split_conditions":[1E0,4.083508E-1,7.098194E-1,3.6591685E-1,7.108088E-1,-1.2155929E0,-2.8762507E-1,1.3232436E0,2.9653725E-1,6.403428E-1,-4.3616244E-1,-8.922995E-1,-7.5160897E-1,-3.2386705E-1,-4.4919086E-1,1.175497E0,2.3797889E-1,-7.2265786E-1,1.50489E-1,4.3702638E-1,1.8588357E0,8.319063E-2,-1.4501533E-1,-8.74519E-1,-4.4919086E-1,-6.68759E-1,-7.5160897E-1,-2.728504E-1,-6.68759E-1,1.900639E-1,-1.6720775E-1,-6.9578625E-2,1.9433038E-1,3.933645E-2,2.7123407E-1,2.5241706E-1,2.0322945E0,1.7663522E0,1.3865622E-2,-2.4337275E-1,-3.2386705E-1,-2.9151514E-1,-6.68759E-1,9.963148E-1,1.2828102E0,-2.632088E-1,-8.74519E-1,-1.7191889E-2,-1.01244755E-1,3.026164E-2,2.5395414E-1,2.7592576E-1,5.7039503E-2,-1.4928931E-1,1.4911392E-2,-1.9849934E-2,-2.1225502E-1,-1.8854174E-1,-6.221477E-2,4.5438707E-2,-8.651963E-2,6.4776815E-2,-1.4754304E-1],"split_indices":[1,5,0,2,2,5,5,3,0,5,0,3,5,2,3,6,0,0,6,3,6,0,0,6,3,2,5,0,2,0,0,0,0,0,0,0,5,3,0,0,2,0,2,0,0,0,6,0,0,0,0,0,0,0,0,0,0,0,0,0,0,0,0],"split_type":[0,0,0,0,0,0,0,0,0,0,0,0,0,0,0,0,0,0,0,0,0,0,0,0,0,0,0,0,0,0,0,0,0,0,0,0,0,0,0,0,0,0,0,0,0,0,0,0,0,0,0,0,0,0,0,0,0,0,0,0,0,0,0],"sum_hessian":[2.0599904E2,9.471125E1,1.1128778E2,1.7131592E1,7.757966E1,2.7954056E1,8.3333725E1,5.176269E0,1.1955322E1,2.048376E1,5.7095898E1,3.4508755E0,2.450318E1,7.561827E1,7.715457E0,2.779453E0,2.3968158E0,3.4389648E0,1.7044796E1,4.879907E1,8.296829E0,1.160867E0,2.2900085E0,1.1517579E1,1.2985601E1,6.762291E1,7.9953594E0,4.9650426E0,2.7504146E0,1.4065303E0,1.3729228E0,2.0348744E0,1.4040904E0,2.2382317E0,1.4806564E1,3.360494E0,4.5438576E1,7.296457E0,1.000372E0,2.8507788E0,8.6668005E0,9.04233E0,3.9432716E0,4.1937675E1,2.5685234E1,4.189046E0,3.8063133E0,1.0016999E0,1.7487148E0,4.3358093E1,2.0804832E0,6.0959897E0,1.2004671E0,7.02428E0,1.6425203E0,2.0396233E0,1.9036484E0,7.841757E0,3.409592E1,1.1143015E1,1.454222E1,1.3358554E0,2.470458E0],"tree_param":{"num_deleted":"0","num_feature":"7","num_nodes":"63","size_leaf_vector":"1"}},{"base_weights":[6.2529505E-3,4.350891E-1,-3.505379E-1,8.094387E-1,3.519363E-1,-6.8293685E-1,-2.7938876E-1,4.1639015E-1,2.848928E-1,6.417468E-1,2.4665853E-1,-7.8973794E-1,-2.3388727E-1,-2.1267192E-1,-7.193627E-1,2.1765195E-1,3.6241423E-2,2.681443E-1,4.8128557E-1,1.7032011E-1,6.8494594E-1,-2.821172E-1,-4.895778E-1,6.767609E-2,-2.0089605E-1,-1.3469008E-1,-4.4718856E-1,-2.6733282E-1,-4.668744E-1,-1.3877521E-1,1.7980808E-1,2.2141029E-1,3.661913E-1,6.59403E-1,8.210445E-2,2.591718E-1,1.8208528E-1,-1.0520713E-3,-6.646491E-1,-1.7306139E-1,8.475361E-2,-2.2423215E-1,-2.4193113E-1,-2.224204E-2,-6.2276554E-1,6.390575E-2,1.4995734E-1,2.2177346E-1,3.8039103E-2,1.3211177E-2,2.1193384E-1,-1.0042023E-1,1.7849247E-1,-6.2102206E-2,-2.3566136E-1,-8.804892E-2,-2.294717E-3,1.0745167E-1,-5.003095E-2,-1.1942238E-1,5.185766E-2,-2.2353813E-1,-5.441441E-2],"categories":[],"categories_nodes":[],"categories_segments":[],"categories_sizes":[],"default_left":[0,0,0,0,0,0,0,0,0,0,0,0,0,0,0,0,0,0,0,0,0,0,0,0,0,0,0,0,0,0,0,0,0,0,0,0,0,0,0,0,0,0,0,0,0,0,0,0,0,0,0,0,0,0,0,0,0,0,0,0,0,0,0],"id":8,"left_children":[1,3,5,7,9,11,13,15,-1,17,19,21,23,25,27,-1,29,-1,31,33,35,-1,37,-1,-1,39,41,-1,43,-1,-1,-1,45,47,49,-1,51,-1,53,55,57,59,-1,-1,61,-1,-1,-1,-1,-1,-1,-1,-1,-1,-1,-1,-1,-1,-1,-1,-1,-1,-1],"loss_changes":[2.903889E1,2.3979607E0,2.2594995E0,4.2542267E-1,2.047351E0,6.5814877E-1,2.4017434E0,6.4318573E-1,0E0,3.2370663E-1,1.7119033E0,1.6260147E-1,1.1116464E0,1.3478148E0,6.270456E-2,0E0,1.2906268E0,0E0,1.3030887E-1,2.011468E0,5.4247546E-1,0E0,5.6696856E-1,0E0,0E0,5.1324236E-1,1.3235483E0,0E0,3.560648E-1,0E0,0E0,0E0,1.2578964E-1,2.113185E-1,9.600326E-1,0E0,9.0506333E-1,0E0,1.0920262E-1,1.0083095E0,7.1194184E-1,9.644601E-1,0E0,0E0,1.1155605E-1,0E0,0E0,0E0,0E0,0E0,0E0,0E0,0E0,0E0,0E0,0E0,0E0,0E0,0E0,0E0,0E0,0E0,0E0],"parents":[2147483647,0,0,1,1,2,2,3,3,4,4,5,5,6,6,7,7,9,9,10,10,11,11,12,12,13,13,14,14,16,16,18,18,19,19,20,20,22,22,25,25,26,26,28,28,32,32,33,33,34,34,36,36,38,38,39,39,40,40,41,41,44,44],"right_children":[2,4,6,8,10,12,14,16,-1,18,20,22,24,26,28,-1,30,-1,32,34,36,-1,38,-1,-1,40,42,-1,44,-1,-1,-1,46,48,50,-1,52,-1,54,56,58,60,-1,-1,62,-1,-1,-1,-1,-1,-1,-1,-1,-1,-1,-1,-1,-1,-1,-1,-1,-1,-1],"split_conditions":[1E0,4.083508E-1,4.2332393E-1,3.6591685E-1,8.80135E-1,-3.2386705E-1,-3.2386705E-1,1.175497E0,2.848928E-1,4.3702638E-1,-4.3616244E-1,-5.3284967E-1,-7.5160897E-1,-5.19617E-1,-7.5160897E-1,2.1765195E-1,-7.2265786E-1,2.681443E-1,3.6591685E-1,4.9215832E-1,1.7663522E0,-2.821172E-1,-8.922995E-1,6.767609E-2,-2.0089605E-1,1.8558012E0,-5.3284967E-1,-2.6733282E-1,-8.74519E-1,-1.3877521E-1,1.7980808E-1,2.2141029E-1,1.4005927E0,1.8003025E0,2.0322945E0,2.591718E-1,8.338277E-1,-1.0520713E-3,-1.013651E0,-6.68759E-1,-1.013651E0,-4.4919086E-1,-2.4193113E-1,-2.224204E-2,1.5693058E0,6.390575E-2,1.4995734E-1,2.2177346E-1,3.8039103E-2,1.3211177E-2,2.1193384E-1,-1.0042023E-1,1.7849247E-1,-6.2102206E-2,-2.3566136E-1,-8.804892E-2,-2.294717E-3,1.0745167E-1,-5.003095E-2,-1.1942238E-1,5.185766E-2,-2.2353813E-1,-5.441441E-2],"split_indices":[1,5,0,2,3,2,2,6,0,3,0,6,5,5,5,0,0,0,2,6,3,0,3,0,0,0,6,0,6,0,0,0,2,5,5,0,6,0,2,2,2,3,0,0,0,0,0,0,0,0,0,0,0,0,0,0,0,0,0,0,0,0,0],"split_type":[0,0,0,0,0,0,0,0,0,0,0,0,0,0,0,0,0,0,0,0,0,0,0,0,0,0,0,0,0,0,0,0,0,0,0,0,0,0,0,0,0,0,0,0,0,0,0,0,0,0,0,0,0,0,0,0,0,0,0,0,0,0,0],"sum_hessian":[1.877939E2,8.518654E1,1.0260735E2,1.3895476E1,7.129106E1,1.6574574E1,8.603278E1,4.6972013E0,9.198276E0,1.7638832E1,5.365223E1,1.2777024E1,3.797549E0,7.599275E1,1.0040028E1,2.0895844E0,2.607617E0,5.0832715E0,1.255556E1,4.68762E1,6.7760277E0,7.0870275E0,5.6899967E0,2.0832646E0,1.7142843E0,5.821075E1,1.7782003E1,4.4700894E0,5.569938E0,1.4774154E0,1.1302016E0,2.2109685E0,1.0344591E1,6.1736298E0,4.070257E1,4.467967E0,2.308061E0,1.7768245E0,3.913172E0,4.972699E1,8.483761E0,1.1974545E1,5.8074584E0,2.001977E0,3.5679615E0,6.0292125E0,4.315379E0,5.0314064E0,1.1422236E0,3.9372498E1,1.3300761E0,1.1090889E0,1.198972E0,1.3844632E0,2.528709E0,2.8327614E1,2.1399376E1,3.8617902E0,4.621971E0,8.326715E0,3.6478293E0,2.2547379E0,1.3132235E0],"tree_param":{"num_deleted":"0","num_feature":"7","num_nodes":"63","size_leaf_vector":"1"}},{"base_weights":[8.034445E-3,3.6969617E-1,-2.8716344E-1,7.545701E-1,2.9360437E-1,-6.157597E-1,-2.2264345E-1,3.7342843E-1,2.7339146E-1,5.922148E-1,1.9283415E-1,-7.256324E-1,-2.0549366E-1,-1.6333942E-1,-6.5429276E-1,-3.5749553E-3,2.1288131E-1,1.170495E-1,6.937022E-1,1.2090723E-1,6.372739E-1,-2.680653E-1,-4.2993277E-1,5.162931E-2,-1.8534292E-1,-9.884124E-2,-3.7019855E-1,-2.5063854E-1,-4.107461E-1,-1.1204053E-1,8.9806736E-2,-7.066985E-2,1.7066875E-1,-4.9004206E-3,2.4207102E-1,2.1284945E-1,-1.7351973E-1,7.0693994E-1,6.388333E-2,-8.506348E-4,-6.0217863E-1,2.5149165E-2,-1.7226106E-1,-1.7312492E-1,-7.301311E-1,-7.4862163E-3,-5.813261E-1,1.0446689E-1,8.4773405E-4,-1.0477118E-1,1.5364619E-1,2.4393557E-1,4.0758256E-2,-5.317004E-2,-2.1780321E-1,7.114074E-2,-2.633221E-2,-6.9522224E-2,2.9189253E-2,-1.3791777E-2,-2.0221177E-1,-2.5137287E-1,-7.419749E-2,-5.2798487E-2,-2.0933391E-1],"categories":[],"categories_nodes":[],"categories_segments":[],"categories_sizes":[],"default_left":[0,0,0,0,0,0,0,0,0,0,0,0,0,0,0,0,0,0,0,0,0,0,0,0,0,0,0,0,0,0,0,0,0,0,0,0,0,0,0,0,0,0,0,0,0,0,0,0,0,0,0,0,0,0,0,0,0,0,0,0,0,0,0,0,0],"id":9,"left_children":[1,3,5,7,9,11,13,15,-1,17,19,21,23,25,27,29,-1,31,33,35,37,-1,39,-1,-1,41,43,-1,45,-1,-1,-1,-1,-1,-1,47,49,51,-1,-1,53,55,57,59,61,-1,63,-1,-1,-1,-1,-1,-1,-1,-1,-1,-1,-1,-1,-1,-1,-1,-1,-1,-1],"loss_changes":[1.876662E1,2.0916586E0,1.915133E0,4.00537E-1,1.919528E0,5.414982E-1,2.0044432E0,6.752719E-1,0E0,7.1786976E-1,1.5857428E0,1.9624567E-1,8.273678E-1,9.486892E-1,8.174801E-2,5.0365293E-1,0E0,7.9032135E-1,1.0943265E0,1.2822827E0,5.6725264E-2,0E0,4.5153844E-1,0E0,0E0,5.2922595E-1,1.0928271E0,0E0,3.8527822E-1,0E0,0E0,0E0,0E0,0E0,0E0,1.0085104E0,1.5642345E0,2.285769E-1,0E0,0E0,1.021117E-1,5.550431E-1,6.052346E-1,7.599345E-1,9.304428E-2,0E0,7.391322E-2,0E0,0E0,0E0,0E0,0E0,0E0,0E0,0E0,0E0,0E0,0E0,0E0,0E0,0E0,0E0,0E0,0E0,0E0],"parents":[2147483647,0,0,1,1,2,2,3,3,4,4,5,5,6,6,7,7,9,9,10,10,11,11,12,12,13,13,14,14,15,15,17,17,18,18,19,19,20,20,22,22,25,25,26,26,28,28,35,35,36,36,37,37,40,40,41,41,42,42,43,43,44,44,46,46],"right_children":[2,4,6,8,10,12,14,16,-1,18,20,22,24,26,28,30,-1,32,34,36,38,-1,40,-1,-1,42,44,-1,46,-1,-1,-1,-1,-1,-1,48,50,52,-1,-1,54,56,58,60,62,-1,64,-1,-1,-1,-1,-1,-1,-1,-1,-1,-1,-1,-1,-1,-1,-1,-1,-1,-1],"split_conditions":[1E0,4.083508E-1,4.2332393E-1,3.6591685E-1,7.108088E-1,-3.2386705E-1,-3.2386705E-1,1.3232436E0,2.7339146E-1,6.403428E-1,-4.3616244E-1,-5.3284967E-1,-7.5160897E-1,-5.19617E-1,-7.5160897E-1,-1.0091534E0,2.1288131E-1,-7.2265786E-1,1.50489E-1,1.7663522E0,1.5171664E0,-2.680653E-1,-8.922995E-1,5.162931E-2,-1.8534292E-1,-8.922995E-1,-5.3284967E-1,-2.5063854E-1,-5.19617E-1,-1.1204053E-1,8.9806736E-2,-7.066985E-2,1.7066875E-1,-4.9004206E-3,2.4207102E-1,-7.2265786E-1,1.7454847E0,1.7663522E0,6.388333E-2,-8.506348E-4,-1.013651E0,-1.013651E0,1.8558012E0,1.8558012E0,1.5693058E0,-7.4862163E-3,-8.74519E-1,1.0446689E-1,8.4773405E-4,-1.0477118E-1,1.5364619E-1,2.4393557E-1,4.0758256E-2,-5.317004E-2,-2.1780321E-1,7.114074E-2,-2.633221E-2,-6.9522224E-2,2.9189253E-2,-1.3791777E-2,-2.0221177E-1,-2.5137287E-1,-7.419749E-2,-5.2798487E-2,-2.0933391E-1],"split_indices":[1,5,0,2,2,2,2,3,0,5,0,6,5,5,5,0,0,0,6,3,6,0,3,0,0,3,6,0,5,0,0,0,0,0,0,0,2,3,0,0,2,2,0,0,0,0,6,0,0,0,0,0,0,0,0,0,0,0,0,0,0,0,0,0,0],"split_type":[0,0,0,0,0,0,0,0,0,0,0,0,0,0,0,0,0,0,0,0,0,0,0,0,0,0,0,0,0,0,0,0,0,0,0,0,0,0,0,0,0,0,0,0,0,0,0,0,0,0,0,0,0,0,0,0,0,0,0,0,0,0,0,0,0],"sum_hessian":[1.7378593E2,7.798734E1,9.5798584E1,1.1401541E1,6.658581E1,1.4320657E1,8.147793E1,4.308016E0,7.093525E0,1.557016E1,5.1015644E1,1.0689285E1,3.631371E0,7.284782E1,8.630109E0,2.4970608E0,1.8109552E0,3.1192286E0,1.2450932E1,4.5004314E1,6.0113316E0,5.528185E0,5.1611004E0,2.1996136E0,1.4317577E0,5.6659378E1,1.6188438E1,3.5551302E0,5.0749784E0,1.0194324E0,1.4776284E0,2.020844E0,1.0983846E0,1.8297577E0,1.0621174E1,3.4506016E1,1.0498299E1,4.5914893E0,1.4198424E0,1.7753758E0,3.3857245E0,2.1316992E1,3.534239E1,1.1417832E1,4.7706056E0,1.9074E0,3.1675785E0,2.0581757E1,1.3924258E1,8.747295E0,1.7510033E0,3.5142663E0,1.077223E0,1.3126034E0,2.073121E0,7.026474E0,1.4290518E1,2.9068539E1,6.2738485E0,9.977035E0,1.4407983E0,3.2987208E0,1.4718845E0,1.2674272E0,1.9001513E0],"tree_param":{"num_deleted":"0","num_feature":"7","num_nodes":"65","size_leaf_vector":"1"}},{"base_weights":[4.6796133E-3,3.0812302E-1,-2.3668328E-1,2.3663658E-1,6.8960965E-1,-1.5915255E-1,-4.7246462E-1,2.4892898E-1,1.8432716E-1,8.037469E-1,1.9707704E-1,-3.5797006E-1,-1.0374445E-1,-6.147294E-1,-1.823935E-1,5.4811186E-1,1.1010932E-1,2.6957837E-1,3.359881E-2,-8.381822E-2,1.7413177E-1,-5.7517403E-1,-8.033493E-2,-4.5922548E-1,-5.3742874E-2,-2.6695997E-1,-3.7682748E-1,4.527288E-2,-3.1786096E-1,6.9029135E-1,-4.251984E-2,2.6767772E-1,-4.7781605E-2,-2.0144711E-1,-2.9379553E-1,-3.5745504E-1,1.9893363E-1,-1.9002493E-1,-2.3094837E-1,7.6426744E-2,-1.2395916E-1,9.176795E-2,-5.851536E-1,-1.7649248E-1,-1.6425012E-1,2.52092E-1,1.1258463E-1,1.6073771E-1,3.1569295E-2,1.8116577E-1,-5.259688E-2,3.1010792E-2,-1.8257317E-1,-1.9579574E-1,1.1492444E-2,1.6915971E-1,-3.8536903E-2,5.3608354E-2,-1.06850885E-1,-3.6198653E-2,7.351954E-2,-4.1756714E-3,-1.1535829E-1,-7.356929E-2,-2.1201475E-1,2.4870945E-2,-9.1011986E-2],"categories":[],"categories_nodes":[],"categories_segments":[],"categories_sizes":[],"default_left":[0,0,0,0,0,0,0,0,0,0,0,0,0,0,0,0,0,0,0,0,0,0,0,0,0,0,0,0,0,0,0,0,0,0,0,0,0,0,0,0,0,0,0,0,0,0,0,0,0,0,0,0,0,0,0,0,0,0,0,0,0,0,0,0,0,0,0],"id":10,"left_children":[1,3,5,7,9,11,13,-1,15,17,19,21,23,25,27,29,31,-1,-1,-1,-1,33,35,37,39,-1,41,-1,43,45,-1,47,49,-1,51,53,55,57,-1,59,61,-1,63,65,-1,-1,-1,-1,-1,-1,-1,-1,-1,-1,-1,-1,-1,-1,-1,-1,-1,-1,-1,-1,-1,-1,-1],"loss_changes":[1.2063371E1,1.8266244E0,1.6020303E0,1.8008142E0,4.5955753E-1,7.400954E-1,8.03844E-1,0E0,1.5367541E0,4.6358585E-1,7.819307E-1,8.564826E-1,9.8109835E-1,6.118417E-1,4.4195148E-1,1.0562882E0,1.266216E0,0E0,0E0,0E0,0E0,2.5932789E-2,6.695637E-1,4.260689E-1,4.7323823E-1,0E0,1.529427E0,0E0,1.15231395E-1,7.5572014E-2,0E0,1.0485064E0,2.2679832E0,0E0,5.4776144E-1,5.202262E-1,6.093483E-1,3.6962646E-1,0E0,6.4106476E-1,9.506577E-1,0E0,1.4148998E-1,2.0666528E-1,0E0,0E0,0E0,0E0,0E0,0E0,0E0,0E0,0E0,0E0,0E0,0E0,0E0,0E0,0E0,0E0,0E0,0E0,0E0,0E0,0E0,0E0,0E0],"parents":[2147483647,0,0,1,1,2,2,3,3,4,4,5,5,6,6,8,8,9,9,10,10,11,11,12,12,13,13,14,14,15,15,16,16,21,21,22,22,23,23,24,24,26,26,28,28,29,29,31,31,32,32,34,34,35,35,36,36,37,37,39,39,40,40,42,42,43,43],"right_children":[2,4,6,8,10,12,14,-1,16,18,20,22,24,26,28,30,32,-1,-1,-1,-1,34,36,38,40,-1,42,-1,44,46,-1,48,50,-1,52,54,56,58,-1,60,62,-1,64,66,-1,-1,-1,-1,-1,-1,-1,-1,-1,-1,-1,-1,-1,-1,-1,-1,-1,-1,-1,-1,-1,-1,-1],"split_conditions":[1E0,-4.3616244E-1,-5.19617E-1,4.3702638E-1,1.7663522E0,7.098194E-1,-4.4919086E-1,2.4892898E-1,4.9215832E-1,1.8588357E0,8.338277E-1,-5.3284967E-1,-1.2155929E0,9.963148E-1,-1.013651E0,1.8003025E0,1.1043266E0,2.6957837E-1,3.359881E-2,-8.381822E-2,1.7413177E-1,-3.2386705E-1,-6.68759E-1,-6.68759E-1,-9.836009E-1,-2.6695997E-1,1.2828102E0,4.527288E-2,1.8558012E0,1.50489E-1,-4.251984E-2,-1.0091534E0,7.108088E-1,-2.0144711E-1,-9.836009E-1,-9.836009E-1,-8.922995E-1,-8.922995E-1,-2.3094837E-1,1.2828102E0,-5.3284967E-1,9.176795E-2,1.5693058E0,-8.74519E-1,-1.6425012E-1,2.52092E-1,1.1258463E-1,1.6073771E-1,3.1569295E-2,1.8116577E-1,-5.259688E-2,3.1010792E-2,-1.8257317E-1,-1.9579574E-1,1.1492444E-2,1.6915971E-1,-3.8536903E-2,5.3608354E-2,-1.06850885E-1,-3.6198653E-2,7.351954E-2,-4.1756714E-3,-1.1535829E-1,-7.356929E-2,-2.1201475E-1,2.4870945E-2,-9.1011986E-2],"split_indices":[1,0,5,3,3,0,3,0,6,6,6,6,5,0,2,5,5,0,0,0,0,2,2,2,5,0,0,0,0,6,0,0,2,0,5,5,3,3,0,0,6,0,0,6,0,0,0,0,0,0,0,0,0,0,0,0,0,0,0,0,0,0,0,0,0,0,0],"split_type":[0,0,0,0,0,0,0,0,0,0,0,0,0,0,0,0,0,0,0,0,0,0,0,0,0,0,0,0,0,0,0,0,0,0,0,0,0,0,0,0,0,0,0,0,0,0,0,0,0,0,0,0,0,0,0,0,0,0,0,0,0,0,0,0,0,0,0],"sum_hessian":[1.6271443E2,7.196404E1,9.075038E1,6.1971546E1,9.9924965E0,6.955424E1,2.1196148E1,3.8179486E0,5.81536E1,7.599547E0,2.3929493E0,1.3969115E1,5.558512E1,1.3470387E1,7.725761E0,8.771959E0,4.938164E1,6.420237E0,1.1793098E0,1.1878284E0,1.205121E0,7.236248E0,6.7328672E0,5.8451815E0,4.9739937E1,4.9755807E0,8.494807E0,2.1996841E0,5.526077E0,7.2724357E0,1.4995235E0,2.436804E1,2.50136E1,4.358049E0,2.8781989E0,3.2389078E0,3.4939592E0,3.9947276E0,1.850454E0,1.7398148E1,3.2341793E1,1.8765829E0,6.618224E0,4.5150976E0,1.0109792E0,3.7967618E0,3.475674E0,8.326719E0,1.6041323E1,3.482921E0,2.1530678E1,1.5695232E0,1.3086755E0,1.4833716E0,1.7555362E0,1.3106785E0,2.183281E0,1.2174176E0,2.7773101E0,8.153539E0,9.244609E0,2.3479582E1,8.862208E0,2.5381536E0,4.0800705E0,1.5969312E0,2.9181666E0],"tree_param":{"num_deleted":"0","num_feature":"7","num_nodes":"67","size_leaf_vector":"1"}},{"base_weights":[3.2586914E-3,2.5712585E-1,-1.9460559E-1,6.427748E-1,1.9257797E-1,-5.023799E-1,-1.422673E-1,2.426477E-1,2.547898E-1,1.5003583E-1,2.4561946E-1,-6.2167084E-1,-1.277578E-1,-9.172233E-2,-5.6137604E-1,-3.2251976E-2,1.8609376E-1,2.2385545E-1,1.0863888E-1,-2.4373199E-1,-3.469379E-1,9.5406435E-2,-1.2201431E-1,-7.436293E-2,-1.8274975E-1,-2.3232386E-1,-3.058392E-1,5.5779707E-2,4.7126687E-1,2.9548812E-3,-5.133102E-1,-2.8533248E-2,-2.3766628E-1,4.203816E-3,-4.7530678E-1,4.5583997E-2,-4.3438926E-2,1.9142549E-1,-4.1478174E-3,-1.9973992E-1,-2.3792474E-2,-2.5043277E-2,1.4820186E-2,-1.972316E-2,-1.8426916E-1,-3.0247241E-2,-1.822822E-1],"categories":[],"categories_nodes":[],"categories_segments":[],"categories_sizes":[],"default_left":[0,0,0,0,0,0,0,0,0,0,0,0,0,0,0,0,0,0,0,0,0,0,0,0,0,0,0,0,0,0,0,0,0,0,0,0,0,0,0,0,0,0,0,0,0,0,0],"id":11,"left_children":[1,3,5,7,9,11,13,15,-1,17,-1,19,21,23,25,-1,-1,-1,27,-1,29,-1,-1,31,-1,-1,33,35,37,-1,39,41,43,-1,45,-1,-1,-1,-1,-1,-1,-1,-1,-1,-1,-1,-1],"loss_changes":[7.8524785E0,1.5805664E0,1.3438559E0,5.69782E-1,1.47753E0,4.7359467E-1,1.5688199E0,6.745037E-1,0E0,1.3374907E0,0E0,1.9650364E-1,6.5752774E-1,5.785497E-1,2.0065022E-1,0E0,0E0,0E0,1.0264106E0,0E0,3.3069128E-1,0E0,0E0,5.046569E-1,0E0,0E0,2.9429597E-1,9.6843016E-1,5.6335413E-1,0E0,1.9604093E-1,2.3748307E-1,9.202835E-1,0E0,1.120103E-1,0E0,0E0,0E0,0E0,0E0,0E0,0E0,0E0,0E0,0E0,0E0,0E0],"parents":[2147483647,0,0,1,1,2,2,3,3,4,4,5,5,6,6,7,7,9,9,11,11,12,12,13,13,14,14,18,18,20,20,23,23,26,26,27,27,28,28,30,30,31,31,32,32,34,34],"right_children":[2,4,6,8,10,12,14,16,-1,18,-1,20,22,24,26,-1,-1,-1,28,-1,30,-1,-1,32,-1,-1,34,36,38,-1,40,42,44,-1,46,-1,-1,-1,-1,-1,-1,-1,-1,-1,-1,-1,-1],"split_conditions":[1E0,4.083508E-1,4.2332393E-1,3.6591685E-1,2.0322945E0,-3.2386705E-1,-3.2386705E-1,1.3232436E0,2.547898E-1,4.3702638E-1,2.4561946E-1,-5.3284967E-1,1.3682847E-1,-1.9118033E-1,-7.5160897E-1,-3.2251976E-2,1.8609376E-1,2.2385545E-1,-4.3616244E-1,-2.4373199E-1,-8.922995E-1,9.5406435E-2,-1.2201431E-1,-5.19617E-1,-1.8274975E-1,-2.3232386E-1,-5.19617E-1,1.5683106E0,1.7663522E0,2.9548812E-3,-7.5160897E-1,-6.68759E-1,-5.3284967E-1,4.203816E-3,-8.74519E-1,4.5583997E-2,-4.3438926E-2,1.9142549E-1,-4.1478174E-3,-1.9973992E-1,-2.3792474E-2,-2.5043277E-2,1.4820186E-2,-1.972316E-2,-1.8426916E-1,-3.0247241E-2,-1.822822E-1],"split_indices":[1,5,0,2,5,2,2,3,0,3,0,6,0,6,5,0,0,0,0,0,3,0,0,5,0,0,5,5,3,0,5,2,6,0,6,0,0,0,0,0,0,0,0,0,0,0,0],"split_type":[0,0,0,0,0,0,0,0,0,0,0,0,0,0,0,0,0,0,0,0,0,0,0,0,0,0,0,0,0,0,0,0,0,0,0,0,0,0,0,0,0,0,0,0,0,0,0],"sum_hessian":[1.5433041E2,6.746755E1,8.686286E1,8.388911E0,5.9078644E1,1.1374808E1,7.548805E1,3.596277E0,4.792634E0,5.6480835E1,2.5978067E0,8.127354E0,3.2474544E0,6.845157E1,7.0364847E0,2.2372944E0,1.3589828E0,2.5619276E0,5.3918907E1,3.641541E0,4.4858127E0,1.1960686E0,2.0513856E0,6.733626E1,1.1153109E0,2.7299974E0,4.306487E0,4.8066257E1,5.8526506E0,1.7257395E0,2.7600732E0,5.34974E1,1.3838861E1,1.8091753E0,2.497312E0,3.2653072E1,1.5413184E1,4.1203284E0,1.7323222E0,1.6472181E0,1.1128551E0,3.1334824E1,2.2162573E1,1.0307504E1,3.5313578E0,1.1119555E0,1.3853564E0],"tree_param":{"num_deleted":"0","num_feature":"7","num_nodes":"47","size_leaf_vector":"1"}},{"base_weights":[1.1320902E-3,2.1136177E-1,-1.6016287E-1,5.839746E-1,1.5491994E-1,-1.2159958E-1,-5.297999E-1,2.1481155E-1,2.4182E-1,1.18427254E-1,2.2633187E-1,-3.413883E-1,-6.948398E-2,-2.4599095E-1,-6.0576845E-2,1.780391E-1,-1.3353659E-1,2.0860195E-1,8.3142504E-2,-5.522679E-1,-7.658879E-2,-3.7263632E-1,-3.629501E-2,4.483007E-2,-7.32983E-2,4.5177445E-2,-1.08353265E-1,3.3960313E-1,1.5958497E-2,-3.3701694E-1,-2.2150566E-1,8.32933E-2,-2.4652724E-1,-1.24484584E-1,-2.0833682E-1,1.9366995E-2,-1.6756439E-1,1.3613467E-1,-9.728889E-2,1.09619394E-1,-1.0976678E-2,-1.5682597E-2,-1.9466655E-1,-1.2534381E-1,4.0115535E-2,5.759887E-2,-8.9350134E-2,6.881055E-2,-3.3558253E-2,6.560971E-2,-1.2768494E-1],"categories":[],"categories_nodes":[],"categories_segments":[],"categories_sizes":[],"default_left":[0,0,0,0,0,0,0,0,0,0,0,0,0,0,0,0,0,0,0,0,0,0,0,0,0,0,0,0,0,0,0,0,0,0,0,0,0,0,0,0,0,0,0,0,0,0,0,0,0,0,0],"id":12,"left_children":[1,3,5,7,9,11,13,15,-1,17,-1,19,21,-1,23,-1,25,-1,27,29,31,33,35,-1,-1,-1,-1,37,39,41,-1,-1,43,45,-1,47,49,-1,-1,-1,-1,-1,-1,-1,-1,-1,-1,-1,-1,-1,-1],"loss_changes":[5.08477E0,1.2786238E0,1.1451514E0,4.9936843E-1,1.1773142E0,8.712994E-1,1.0012496E0,6.6548586E-1,0E0,1.0772622E0,0E0,7.797346E-1,6.345903E-1,0E0,1.9199222E-1,0E0,2.5691238E-1,0E0,9.19534E-1,7.295632E-2,5.3119767E-1,4.1255587E-1,4.3556964E-1,0E0,0E0,0E0,0E0,9.881555E-1,8.137413E-1,4.6024233E-1,0E0,0E0,4.2871833E-1,3.1758136E-1,0E0,1.1953907E0,1.8595319E0,0E0,0E0,0E0,0E0,0E0,0E0,0E0,0E0,0E0,0E0,0E0,0E0,0E0,0E0],"parents":[2147483647,0,0,1,1,2,2,3,3,4,4,5,5,6,6,7,7,9,9,11,11,12,12,14,14,16,16,18,18,19,19,20,20,21,21,22,22,27,27,28,28,29,29,32,32,33,33,35,35,36,36],"right_children":[2,4,6,8,10,12,14,16,-1,18,-1,20,22,-1,24,-1,26,-1,28,30,32,34,36,-1,-1,-1,-1,38,40,42,-1,-1,44,46,-1,48,50,-1,-1,-1,-1,-1,-1,-1,-1,-1,-1,-1,-1,-1,-1],"split_conditions":[1E0,4.083508E-1,-2.8762507E-1,3.6591685E-1,2.0322945E0,7.098194E-1,-4.4919086E-1,1.175497E0,2.4182E-1,4.3702638E-1,2.2633187E-1,-5.3284967E-1,-1.2155929E0,-2.4599095E-1,-6.68759E-1,1.780391E-1,1.7635883E-1,2.0860195E-1,7.108088E-1,-7.5160897E-1,1.3682847E-1,-6.68759E-1,-5.3284967E-1,4.483007E-2,-7.32983E-2,4.5177445E-2,-1.08353265E-1,1.8003025E0,4.9215832E-1,-4.4919086E-1,-2.2150566E-1,8.32933E-2,-4.4919086E-1,1.2828102E0,-2.0833682E-1,1.2828102E0,-9.836009E-1,1.3613467E-1,-9.728889E-2,1.09619394E-1,-1.0976678E-2,-1.5682597E-2,-1.9466655E-1,-1.2534381E-1,4.0115535E-2,5.759887E-2,-8.9350134E-2,6.881055E-2,-3.3558253E-2,6.560971E-2,-1.2768494E-1],"split_indices":[1,5,5,2,5,0,3,6,0,3,0,6,5,0,2,0,5,0,2,5,0,2,6,0,0,0,0,5,6,3,0,0,3,0,0,0,5,0,0,0,0,0,0,0,0,0,0,0,0,0,0],"split_type":[0,0,0,0,0,0,0,0,0,0,0,0,0,0,0,0,0,0,0,0,0,0,0,0,0,0,0,0,0,0,0,0,0,0,0,0,0,0,0,0,0,0,0,0,0,0,0,0,0,0,0],"sum_hessian":[1.4795514E2,6.4098976E1,8.3856155E1,7.2026515E0,5.6896328E1,7.713756E1,6.7185955E0,3.4444613E0,3.7581904E0,5.4760593E1,2.1357331E0,1.3720993E1,6.3416565E1,3.6894903E0,3.0291052E0,1.3132818E0,2.1311796E0,2.0780215E0,5.268257E1,7.0338244E0,6.6871686E0,5.2484875E0,5.8168076E1,1.500701E0,1.5284042E0,1.0985291E0,1.0326504E0,1.0094427E1,4.2588146E1,4.5647254E0,2.469099E0,1.9625279E0,4.724641E0,3.7464526E0,1.5020347E0,4.1446167E1,1.6721909E1,8.883167E0,1.2112603E0,4.78883E0,3.7799316E1,2.996506E0,1.5682194E0,3.1892257E0,1.5354153E0,1.2877885E0,2.4586642E0,1.5651498E1,2.579467E1,6.7582974E0,9.963611E0],"tree_param":{"num_deleted":"0","num_feature":"7","num_nodes":"51","size_leaf_vector":"1"}},{"base_weights":[2.956743E-4,1.743307E-1,-1.3124153E-1,1.2160478E-1,5.3090626E-1,-4.0870404E-1,-8.884804E-2,2.0515181E-1,8.7748125E-2,6.706608E-1,2.9005714E-2,-5.414083E-1,-4.1683704E-2,-4.7106974E-2,-4.776051E-1,3.836296E-1,3.8491115E-2,2.3375203E-1,6.462737E-2,-2.2120842E-1,-3.0218068E-1,9.1949336E-2,-9.311876E-2,-1.0226479E-1,3.421506E-2,-2.1312936E-1,-2.2767454E-1,5.4817873E-1,-5.997174E-2,1.2869671E-1,1.0586949E-2,4.2496E-3,-4.621188E-1,-2.3556113E-1,8.404296E-2,1.9767934E-1,-2.1191953E-1,1.2868475E-2,-3.903489E-1,2.2335437E-1,6.2451903E-2,-6.14582E-2,2.0065788E-2,-9.613628E-3,-1.8740866E-1,-8.004491E-3,-1.13573514E-1,-7.692899E-2,1.500008E-1,2.1636005E-2,1.11510746E-1,-2.7387576E-2,-1.9805379E-1,-1.8066466E-2,-1.593502E-1],"categories":[],"categories_nodes":[],"categories_segments":[],"categories_sizes":[],"default_left":[0,0,0,0,0,0,0,0,0,0,0,0,0,0,0,0,0,0,0,0,0,0,0,0,0,0,0,0,0,0,0,0,0,0,0,0,0,0,0,0,0,0,0,0,0,0,0,0,0,0,0,0,0,0,0],"id":13,"left_children":[1,3,5,7,9,11,13,-1,15,17,-1,19,21,23,25,27,29,-1,-1,-1,31,-1,-1,33,35,-1,37,39,-1,-1,41,-1,43,45,47,49,51,-1,53,-1,-1,-1,-1,-1,-1,-1,-1,-1,-1,-1,-1,-1,-1,-1,-1],"loss_changes":[3.3144002E0,1.1071625E0,9.33645E-1,9.9820584E-1,4.043262E-1,4.9621832E-1,1.1589918E0,0E0,7.661437E-1,1.12752676E-1,0E0,1.3999486E-1,4.611434E-1,3.033998E-1,2.4268663E-1,8.3314025E-1,5.080969E-1,0E0,0E0,0E0,2.6859963E-1,0E0,0E0,1.015376E0,1.159207E0,0E0,2.2905245E-1,2.5523508E-1,0E0,0E0,5.5872595E-1,0E0,2.2259271E-1,6.958729E-1,2.6005123E0,3.4912556E-1,5.6509477E-1,0E0,1.1265662E-1,0E0,0E0,0E0,0E0,0E0,0E0,0E0,0E0,0E0,0E0,0E0,0E0,0E0,0E0,0E0,0E0],"parents":[2147483647,0,0,1,1,2,2,3,3,4,4,5,5,6,6,8,8,9,9,11,11,12,12,13,13,14,14,15,15,16,16,20,20,23,23,24,24,26,26,27,27,30,30,32,32,33,33,34,34,35,35,36,36,38,38],"right_children":[2,4,6,8,10,12,14,-1,16,18,-1,20,22,24,26,28,30,-1,-1,-1,32,-1,-1,34,36,-1,38,40,-1,-1,42,-1,44,46,48,50,52,-1,54,-1,-1,-1,-1,-1,-1,-1,-1,-1,-1,-1,-1,-1,-1,-1,-1],"split_conditions":[1E0,-4.3616244E-1,4.2332393E-1,4.3702638E-1,1.7663522E0,-3.2386705E-1,-3.2386705E-1,2.0515181E-1,4.9215832E-1,1.5171664E0,2.9005714E-2,-5.3284967E-1,1.3682847E-1,-6.68759E-1,-7.5160897E-1,1.8003025E0,1.7635883E-1,2.3375203E-1,6.462737E-2,-2.2120842E-1,-8.922995E-1,9.1949336E-2,-9.311876E-2,-7.5160897E-1,-7.5160897E-1,-2.1312936E-1,-8.74519E-1,1.50489E-1,-5.997174E-2,1.2869671E-1,8.338277E-1,4.2496E-3,-1.013651E0,-8.922995E-1,1.5693058E0,-4.4919086E-1,1.8558012E0,1.2868475E-2,-5.19617E-1,2.2335437E-1,6.2451903E-2,-6.14582E-2,2.0065788E-2,-9.613628E-3,-1.8740866E-1,-8.004491E-3,-1.13573514E-1,-7.692899E-2,1.500008E-1,2.1636005E-2,1.11510746E-1,-2.7387576E-2,-1.9805379E-1,-1.8066466E-2,-1.593502E-1],"split_indices":[1,0,0,3,3,2,2,0,6,6,0,6,0,2,5,5,5,0,0,0,3,0,0,5,5,0,6,6,0,0,6,0,2,3,0,3,0,0,5,0,0,0,0,0,0,0,0,0,0,0,0,0,0,0,0],"split_type":[0,0,0,0,0,0,0,0,0,0,0,0,0,0,0,0,0,0,0,0,0,0,0,0,0,0,0,0,0,0,0,0,0,0,0,0,0,0,0,0,0,0,0,0,0,0,0,0,0,0,0,0,0,0,0],"sum_hessian":[1.4278427E2,6.1323143E1,8.146113E1,5.4591824E1,6.7313185E0,9.651564E0,7.180956E1,2.0102866E0,5.258154E1,4.680406E0,2.0509126E0,6.739577E0,2.9119868E0,6.5859375E1,5.950185E0,6.5354543E0,4.6046085E1,3.2048907E0,1.4755152E0,2.5602214E0,4.179355E0,1.2071782E0,1.7048085E0,3.9089108E1,2.6770267E1,2.1266046E0,3.8235805E0,5.1451745E0,1.3902799E0,2.1123047E0,4.393378E1,1.709507E0,2.4698484E0,2.2632221E1,1.6456888E1,1.6204987E1,1.0565282E1,1.7121489E0,2.1114316E0,2.507507E0,2.6376674E0,8.555273E0,3.5378506E1,1.0059255E0,1.4639227E0,9.680387E0,1.2951834E1,9.260483E0,7.1964045E0,1.0234864E1,5.970123E0,9.273438E0,1.2918427E0,1.0582289E0,1.0532026E0],"tree_param":{"num_deleted":"0","num_feature":"7","num_nodes":"55","size_leaf_vector":"1"}},{"base_weights":[-1.191846E-3,1.4361124E-1,-1.0967377E-1,1.7399354E-1,1.0851371E-1,-7.923646E-2,-4.3781957E-1,7.816309E-2,2.061269E-1,-6.348116E-2,-1.7759684E-1,-2.2832328E-1,1.8030587E-4,1.8465975E-1,5.1495932E-2,-2.2470726E-1,-2.9312048E-2,4.814883E-2,-5.115087E-2,2.6744187E-2,1.9341536E-1,-4.517828E-2,-5.652312E-1,-2.6068172E-1,-6.3600386E-3,-2.172235E-3,9.611328E-2,8.490101E-2,-6.462972E-2,-2.1653864E-1,-7.555943E-3,1.5025454E-3,-1.9303174E-1,-1.918997E-2,3.2243215E-2],"categories":[],"categories_nodes":[],"categories_segments":[],"categories_sizes":[],"default_left":[0,0,0,0,0,0,0,0,0,0,0,0,0,0,0,0,0,0,0,0,0,0,0,0,0,0,0,0,0,0,0,0,0,0,0],"id":14,"left_children":[1,3,5,-1,7,9,11,13,-1,15,-1,-1,17,-1,19,21,23,-1,-1,25,-1,27,29,31,33,-1,-1,-1,-1,-1,-1,-1,-1,-1,-1],"loss_changes":[2.2113512E0,8.605385E-1,7.690761E-1,0E0,9.478986E-1,5.6721795E-1,9.360075E-1,7.611002E-1,0E0,3.9971405E-1,0E0,0E0,1.3152456E-1,0E0,7.7271086E-1,7.5375414E-1,3.2761613E-1,0E0,0E0,5.280995E-1,0E0,5.880646E-1,3.4654677E-1,5.697508E-1,3.8351867E-1,0E0,0E0,0E0,0E0,0E0,0E0,0E0,0E0,0E0,0E0],"parents":[2147483647,0,0,1,1,2,2,4,4,5,5,6,6,7,7,9,9,12,12,14,14,15,15,16,16,19,19,21,21,22,22,23,23,24,24],"right_children":[2,4,6,-1,8,10,12,14,-1,16,-1,-1,18,-1,20,22,24,-1,-1,26,-1,28,30,32,34,-1,-1,-1,-1,-1,-1,-1,-1,-1,-1],"split_conditions":[1E0,1.7635883E-1,-2.8762507E-1,1.7399354E-1,2.0322945E0,-6.082234E-3,-4.4919086E-1,4.3702638E-1,2.061269E-1,7.098194E-1,-1.7759684E-1,-2.2832328E-1,-6.68759E-1,1.8465975E-1,2.200505E0,-7.5160897E-1,-1.2155929E0,4.814883E-2,-5.115087E-2,-4.3616244E-1,1.9341536E-1,1.3682847E-1,-4.4919086E-1,-6.68759E-1,-4.4919086E-1,-2.172235E-3,9.611328E-2,8.490101E-2,-6.462972E-2,-2.1653864E-1,-7.555943E-3,1.5025454E-3,-1.9303174E-1,-1.918997E-2,3.2243215E-2],"split_indices":[1,5,5,0,5,3,3,3,0,0,0,0,2,0,6,5,5,0,0,0,0,0,3,2,3,0,0,0,0,0,0,0,0,0,0],"split_type":[0,0,0,0,0,0,0,0,0,0,0,0,0,0,0,0,0,0,0,0,0,0,0,0,0,0,0,0,0,0,0,0,0,0,0],"sum_hessian":[1.3877136E2,5.929705E1,7.9474304E1,3.2585657E0,5.6038486E1,7.386444E1,5.6098614E0,5.432389E1,1.7145973E0,7.2752785E1,1.1116614E0,2.8033087E0,2.8065526E0,1.5243667E0,5.2799522E1,1.1747268E1,6.1005512E1,1.4780061E0,1.3285465E0,5.168796E1,1.1115592E0,8.433619E0,3.3136487E0,4.5708623E0,5.643465E1,4.720036E1,4.4876027E0,2.6545227E0,5.779096E0,2.307992E0,1.0056567E0,3.2805736E0,1.2902886E0,3.7763046E1,1.8671604E1],"tree_param":{"num_deleted":"0","num_feature":"7","num_nodes":"35","size_leaf_vector":"1"}},{"base_weights":[-7.5146416E-4,1.19615845E-1,-9.042358E-2,1.8812121E-1,9.435537E-2,-3.3288413E-1,-5.642693E-2,7.122584E-2,1.8368398E-1,-4.6975252E-1,4.8674005E-3,-2.1480098E-2,-4.1171518E-1,3.9172924E-1,3.3151075E-2,-2.0355707E-1,-2.4187544E-1,9.286471E-2,-7.7483065E-2,4.109768E-2,-6.9804035E-2,-1.944959E-1,-1.835013E-1,3.366502E-2,2.1022218E-1,2.2684978E-1,-1.1851582E-2,1.1473723E-2,-1.19879335E-1,2.3109742E-1,-9.279705E-2,-1.6102032E-1,1.5681262E-1,1.632784E-2,-1.0215534E-1,1.5956765E-1,-1.0994986E-1,-9.506025E-2,1.0301916E-1,-2.6684033E-2,5.331935E-2,-6.068102E-2,2.0419213E-1,4.3159973E-2,-1.5542394E-1,-9.294581E-2,7.8044413E-3,-7.857145E-2,1.8577485E-1],"categories":[],"categories_nodes":[],"categories_segments":[],"categories_sizes":[],"default_left":[0,0,0,0,0,0,0,0,0,0,0,0,0,0,0,0,0,0,0,0,0,0,0,0,0,0,0,0,0,0,0,0,0,0,0,0,0,0,0,0,0,0,0,0,0,0,0,0,0],"id":15,"left_children":[1,3,5,-1,7,9,11,13,-1,15,17,19,21,23,25,-1,27,-1,-1,29,31,-1,33,35,-1,37,39,-1,-1,41,43,45,47,-1,-1,-1,-1,-1,-1,-1,-1,-1,-1,-1,-1,-1,-1,-1,-1],"loss_changes":[1.487937E0,6.952887E-1,6.323606E-1,0E0,6.4212143E-1,4.4191575E-1,8.6631167E-1,6.695008E-1,0E0,1.5833437E-1,3.7918112E-1,2.0011806E-1,2.1889424E-1,6.232526E-1,4.479621E-1,0E0,2.2711477E-1,0E0,0E0,7.605163E-1,7.937254E-1,0E0,1.8962815E-1,9.4429207E-1,0E0,7.222265E-1,6.355417E-1,0E0,0E0,2.5331736E0,1.8616011E0,7.594945E-1,2.3261974E0,0E0,0E0,0E0,0E0,0E0,0E0,0E0,0E0,0E0,0E0,0E0,0E0,0E0,0E0,0E0,0E0],"parents":[2147483647,0,0,1,1,2,2,4,4,5,5,6,6,7,7,9,9,10,10,11,11,12,12,13,13,14,14,16,16,19,19,20,20,22,22,23,23,25,25,26,26,29,29,30,30,31,31,32,32],"right_children":[2,4,6,-1,8,10,12,14,-1,16,18,20,22,24,26,-1,28,-1,-1,30,32,-1,34,36,-1,38,40,-1,-1,42,44,46,48,-1,-1,-1,-1,-1,-1,-1,-1,-1,-1,-1,-1,-1,-1,-1,-1],"split_conditions":[1E0,4.3702638E-1,4.2332393E-1,1.8812121E-1,2.0322945E0,-3.2386705E-1,-3.2386705E-1,4.083508E-1,1.8368398E-1,-5.3284967E-1,-9.836009E-1,1.2828102E0,-7.5160897E-1,-7.2265786E-1,7.108088E-1,-2.0355707E-1,-8.922995E-1,9.286471E-2,-7.7483065E-2,-8.922995E-1,-5.3284967E-1,-1.944959E-1,-8.74519E-1,1.175497E0,2.1022218E-1,1.50489E-1,1.7454847E0,1.1473723E-2,-1.19879335E-1,9.963148E-1,-5.3284967E-1,-7.5160897E-1,-4.4919086E-1,1.632784E-2,-1.0215534E-1,1.5956765E-1,-1.0994986E-1,-9.506025E-2,1.0301916E-1,-2.6684033E-2,5.331935E-2,-6.068102E-2,2.0419213E-1,4.3159973E-2,-1.5542394E-1,-9.294581E-2,7.8044413E-3,-7.857145E-2,1.8577485E-1],"split_indices":[1,3,0,0,5,2,2,5,0,6,5,0,5,0,2,0,3,0,0,3,6,0,6,6,0,6,2,0,0,0,6,5,3,0,0,0,0,0,0,0,0,0,0,0,0,0,0,0,0],"split_type":[0,0,0,0,0,0,0,0,0,0,0,0,0,0,0,0,0,0,0,0,0,0,0,0,0,0,0,0,0,0,0,0,0,0,0,0,0,0,0,0,0,0,0,0,0,0,0,0,0],"sum_hessian":[1.3585165E2,5.7856575E1,7.799508E1,1.6137602E0,5.6242813E1,8.510119E0,6.948496E1,5.4927383E1,1.3154309E0,5.777897E0,2.7322226E0,6.4227844E1,5.257116E0,4.8460636E0,5.0081318E1,1.9832991E0,3.7945979E0,1.1844547E0,1.547768E0,2.8051582E1,3.617626E1,1.6773025E0,3.5798132E0,2.7585554E0,2.0875082E0,8.680073E0,4.1401245E1,1.6397853E0,2.1548126E0,1.1296137E1,1.6755445E1,2.6000263E1,1.0176E1,1.6829734E0,1.8968399E0,1.0820986E0,1.6764568E0,1.2287799E0,7.451293E0,2.980973E1,1.1591515E1,6.031611E0,5.2645264E0,1.1190057E1,5.565388E0,1.4114641E1,1.1885622E1,5.5680246E0,4.607975E0],"tree_param":{"num_deleted":"0","num_feature":"7","num_nodes":"49","size_leaf_vector":"1"}},{"base_weights":[-7.0105295E-4,1.00038365E-1,-7.529903E-2,1.7425075E-1,7.81976E-2,-2.614717E-2,-2.5625437E-1,5.809893E-2,1.6893005E-1,6.231469E-2,-8.37931E-2,-1.0761391E-1,-6.1077297E-1,1.3419528E-1,3.2404207E-2,-2.0786224E-2,2.4073447E-1,-1.6759118E-1,1.05536066E-1,5.3483173E-3,-1.8625487E-1,-2.241038E-1,-3.1075852E-2,5.4173656E-3,2.770176E-1,1.2755509E-1,-4.1240785E-1,2.1950567E-1,-1.9574611E-1,-4.8661456E-1,-3.7782524E-2,4.5915687E-1,-3.2736045E-1,1.488128E-1,-2.9936308E-1,7.255183E-2,-8.562086E-3,1.4273585E-1,-3.744958E-2,-7.009741E-2,8.942664E-2,-2.0936875E-1,-4.2810805E-2,-2.3205447E-1,9.551447E-2,-4.3572458E-3,-2.257469E-1,5.6193028E-2,-1.1944439E-1,-2.980932E-2,2.6586235E-1,-3.7145294E-2,-1.8426794E-1,-9.3381904E-2,9.16546E-2,3.8005754E-2,-1.8805483E-1],"categories":[],"categories_nodes":[],"categories_segments":[],"categories_sizes":[],"default_left":[0,0,0,0,0,0,0,0,0,0,0,0,0,0,0,0,0,0,0,0,0,0,0,0,0,0,0,0,0,0,0,0,0,0,0,0,0,0,0,0,0,0,0,0,0,0,0,0,0,0,0,0,0,0,0,0,0],"id":16,"left_children":[1,3,5,-1,7,9,11,13,-1,15,17,19,21,-1,23,25,27,29,31,33,-1,-1,-1,35,37,39,41,-1,43,45,47,49,51,53,55,-1,-1,-1,-1,-1,-1,-1,-1,-1,-1,-1,-1,-1,-1,-1,-1,-1,-1,-1,-1,-1,-1],"loss_changes":[1.0160714E0,5.586717E-1,6.8418187E-1,0E0,5.1483846E-1,3.224008E-1,8.0262077E-1,5.361731E-1,0E0,3.7735868E-1,6.219212E-1,7.468307E-1,2.442143E-1,0E0,3.465898E-1,1.1014262E0,1.8703151E0,1.0908985E0,2.0329702E0,5.473801E-1,0E0,0E0,0E0,3.963633E-1,4.7629786E-1,9.232817E-1,3.0049616E-1,0E0,1.7479646E0,9.5089173E-1,1.7069205E0,1.8018587E0,2.80895E-1,7.070808E-1,6.394741E-1,0E0,0E0,0E0,0E0,0E0,0E0,0E0,0E0,0E0,0E0,0E0,0E0,0E0,0E0,0E0,0E0,0E0,0E0,0E0,0E0,0E0,0E0],"parents":[2147483647,0,0,1,1,2,2,4,4,5,5,6,6,7,7,9,9,10,10,11,11,12,12,14,14,15,15,16,16,17,17,18,18,19,19,23,23,24,24,25,25,26,26,28,28,29,29,30,30,31,31,32,32,33,33,34,34],"right_children":[2,4,6,-1,8,10,12,14,-1,16,18,20,22,-1,24,26,28,30,32,34,-1,-1,-1,36,38,40,42,-1,44,46,48,50,52,54,56,-1,-1,-1,-1,-1,-1,-1,-1,-1,-1,-1,-1,-1,-1,-1,-1,-1,-1,-1,-1,-1,-1],"split_conditions":[1E0,4.3702638E-1,-5.19617E-1,1.7425075E-1,2.0322945E0,-8.922995E-1,-5.3284967E-1,1.7635883E-1,1.6893005E-1,1.5693058E0,-7.5160897E-1,1.8558012E0,1.5693058E0,1.3419528E-1,-4.3616244E-1,1.2828102E0,-1.013651E0,-1.013651E0,-6.68759E-1,-2.8762507E-1,-1.8625487E-1,-2.241038E-1,-3.1075852E-2,4.9215832E-1,1.7663522E0,-8.74519E-1,-1.013651E0,2.1950567E-1,-6.68759E-1,1.2828102E0,-9.836009E-1,1.5693058E0,-5.3284967E-1,9.963148E-1,9.963148E-1,7.255183E-2,-8.562086E-3,1.4273585E-1,-3.744958E-2,-7.009741E-2,8.942664E-2,-2.0936875E-1,-4.2810805E-2,-2.3205447E-1,9.551447E-2,-4.3572458E-3,-2.257469E-1,5.6193028E-2,-1.1944439E-1,-2.980932E-2,2.6586235E-1,-3.7145294E-2,-1.8426794E-1,-9.3381904E-2,9.16546E-2,3.8005754E-2,-1.8805483E-1],"split_indices":[1,3,5,0,5,3,6,5,0,0,5,0,0,0,0,0,2,2,2,5,0,0,0,6,3,6,2,0,2,0,5,0,6,0,0,0,0,0,0,0,0,0,0,0,0,0,0,0,0,0,0,0,0,0,0,0,0],"split_type":[0,0,0,0,0,0,0,0,0,0,0,0,0,0,0,0,0,0,0,0,0,0,0,0,0,0,0,0,0,0,0,0,0,0,0,0,0,0,0,0,0,0,0,0,0,0,0,0,0,0,0,0,0,0,0,0,0],"sum_hessian":[1.3320418E2,5.6527145E1,7.667703E1,1.3441098E0,5.5183037E1,6.1198524E1,1.5478509E1,5.4062042E1,1.1209956E0,2.4113548E1,3.7084976E1,1.1824396E1,3.6541138E0,2.331779E0,5.1730263E1,1.7053976E1,7.059572E0,2.5786537E1,1.1298442E1,1.0502413E1,1.3219829E0,2.5076566E0,1.1464571E0,4.7510803E1,4.2194576E0,1.2857868E1,4.1961074E0,3.0041687E0,4.055403E0,6.662871E0,1.9123665E1,6.1852365E0,5.113205E0,7.488363E0,3.01405E0,5.1981473E0,4.2312656E1,2.699969E0,1.5194885E0,4.0048676E0,8.853001E0,1.2671647E0,2.9289427E0,1.6719606E0,2.3834426E0,2.7804694E0,3.8824017E0,1.2066729E1,7.0569367E0,3.0125623E0,3.1726742E0,3.8284147E0,1.2847903E0,1.6519035E0,5.836459E0,1.5763837E0,1.4376664E0],"tree_param":{"num_deleted":"0","num_feature":"7","num_nodes":"57","size_leaf_vector":"1"}},{"base_weights":[-5.839646E-3,8.433947E-2,-7.21698E-2,1.611433E-1,6.536181E-2,-3.0219262E-2,-2.3108031E-1,3.7442103E-2,3.128337E-1,-6.771952E-2,4.122664E-2,-1.0756395E-1,-5.5354893E-1,2.5687248E-1,5.95038E-3,1.9338891E-1,-3.3309562E-3,2.2790084E-2,-2.3899147E-1,-1.3744111E-1,3.3329272E-1,-1.3299389E-2,-1.7106293E-1,-2.0854639E-1,-2.6545854E-2,4.3899626E-1,-7.853802E-2,-1.0058533E-1,5.983652E-2,-1.6164666E-1,1.7823759E-1,2.2842447E-1,-6.812142E-2,-5.74514E-1,4.3924954E-2,1.5261176E-1,-4.3731588E-1,-6.1558787E-2,5.489819E-1,9.831469E-2,-2.6357338E-1,2.0228107E-1,2.7001483E-2,-3.3971125E-1,5.3243093E-2,1.082634E-1,-1.1043725E-2,-3.0396437E-2,1.8710007E-1,3.8540487E-3,-6.43353E-2,-1.9076116E-1,-3.904974E-2,-1.23336226E-1,6.924534E-2,9.6088156E-2,-6.3139684E-2,1.782077E-3,-1.7296532E-1,-1.4108708E-2,2.4424408E-1,-8.030014E-2,6.390333E-2,4.0857676E-2,-1.7645554E-1],"categories":[],"categories_nodes":[],"categories_segments":[],"categories_sizes":[],"default_left":[0,0,0,0,0,0,0,0,0,0,0,0,0,0,0,0,0,0,0,0,0,0,0,0,0,0,0,0,0,0,0,0,0,0,0,0,0,0,0,0,0,0,0,0,0,0,0,0,0,0,0,0,0,0,0,0,0,0,0,0,0,0,0,0,0],"id":17,"left_children":[1,3,5,-1,7,9,11,13,15,17,19,21,23,25,27,-1,29,31,33,35,37,39,-1,-1,-1,41,-1,43,45,-1,-1,47,49,51,53,55,57,-1,59,61,63,-1,-1,-1,-1,-1,-1,-1,-1,-1,-1,-1,-1,-1,-1,-1,-1,-1,-1,-1,-1,-1,-1,-1,-1],"loss_changes":[7.96874E-1,4.5032153E-1,5.0441635E-1,0E0,3.7076336E-1,1.684809E-1,5.7261723E-1,3.5006618E-1,5.766099E-1,6.399911E-1,1.189034E0,5.470168E-1,2.1208E-1,7.158859E-1,2.673299E-1,0E0,1.5355518E0,5.332876E-1,1.3769343E0,1.3106232E0,1.1123451E0,3.496223E-1,0E0,0E0,0E0,3.5660106E-1,0E0,4.694612E0,9.1103804E-1,0E0,0E0,1.1996417E0,2.3941049E-1,9.676862E-2,8.3090925E-1,5.551204E-1,4.5334566E-1,0E0,1.0525503E0,4.240006E-1,5.79165E-1,0E0,0E0,0E0,0E0,0E0,0E0,0E0,0E0,0E0,0E0,0E0,0E0,0E0,0E0,0E0,0E0,0E0,0E0,0E0,0E0,0E0,0E0,0E0,0E0],"parents":[2147483647,0,0,1,1,2,2,4,4,5,5,6,6,7,7,8,8,9,9,10,10,11,11,12,12,13,13,14,14,16,16,17,17,18,18,19,19,20,20,21,21,25,25,27,27,28,28,31,31,32,32,33,33,34,34,35,35,36,36,38,38,39,39,40,40],"right_children":[2,4,6,-1,8,10,12,14,16,18,20,22,24,26,28,-1,30,32,34,36,38,40,-1,-1,-1,42,-1,44,46,-1,-1,48,50,52,54,56,58,-1,60,62,64,-1,-1,-1,-1,-1,-1,-1,-1,-1,-1,-1,-1,-1,-1,-1,-1,-1,-1,-1,-1,-1,-1,-1,-1],"split_conditions":[1E0,4.3702638E-1,-5.19617E-1,1.611433E-1,-4.3616244E-1,-5.3284967E-1,-5.3284967E-1,4.9215832E-1,8.723347E-1,-4.4919086E-1,-4.4919086E-1,1.8558012E0,1.5693058E0,1.8003025E0,-1.0091534E0,1.9338891E-1,1.5683106E0,9.963148E-1,-9.836009E-1,-8.922995E-1,-1.013651E0,-2.8762507E-1,-1.7106293E-1,-2.0854639E-1,-2.6545854E-2,1.50489E-1,-7.853802E-2,8.338277E-1,8.338277E-1,-1.6164666E-1,1.7823759E-1,-8.922995E-1,-8.922995E-1,1.5693058E0,9.963148E-1,1.2828102E0,-1.013651E0,-6.1558787E-2,9.963148E-1,9.963148E-1,-6.68759E-1,2.0228107E-1,2.7001483E-2,-3.3971125E-1,5.3243093E-2,1.082634E-1,-1.1043725E-2,-3.0396437E-2,1.8710007E-1,3.8540487E-3,-6.43353E-2,-1.9076116E-1,-3.904974E-2,-1.23336226E-1,6.924534E-2,9.6088156E-2,-6.3139684E-2,1.782077E-3,-1.7296532E-1,-1.4108708E-2,2.4424408E-1,-8.030014E-2,6.390333E-2,4.0857676E-2,-1.7645554E-1],"split_indices":[1,3,5,0,0,6,6,6,5,3,3,0,0,5,0,0,5,0,5,3,2,5,0,0,0,6,0,6,6,0,0,3,3,0,0,0,2,0,0,0,2,0,0,0,0,0,0,0,0,0,0,0,0,0,0,0,0,0,0,0,0,0,0,0,0],"split_type":[0,0,0,0,0,0,0,0,0,0,0,0,0,0,0,0,0,0,0,0,0,0,0,0,0,0,0,0,0,0,0,0,0,0,0,0,0,0,0,0,0,0,0,0,0,0,0,0,0,0,0,0,0,0,0,0,0,0,0,0,0,0,0,0,0],"sum_hessian":[1.312034E2,5.5490215E1,7.571319E1,1.1338012E0,5.4356415E1,6.0841812E1,1.4871373E1,4.9880238E1,4.476176E0,3.9933712E1,2.09081E1,1.171695E1,3.154423E0,5.361959E0,4.451828E1,1.6771754E0,2.7990005E0,2.6694036E1,1.3239675E1,1.3300876E1,7.607226E0,1.0588316E1,1.128634E0,2.0388615E0,1.1155615E0,4.082159E0,1.2798E0,1.4662711E1,2.9855568E1,1.5277976E0,1.2712029E0,7.7198234E0,1.8974215E1,5.5852304E0,7.6544437E0,7.010792E0,6.2900834E0,2.1895227E0,5.417703E0,7.742558E0,2.8457582E0,1.8816097E0,2.2005494E0,2.460468E0,1.2202243E1,6.5912576E0,2.326431E1,4.6140366E0,3.105787E0,1.2802461E1,6.171753E0,4.528857E0,1.0563735E0,1.879203E0,5.775241E0,4.87649E0,2.1343014E0,1.7323788E0,4.557705E0,1.9214672E0,3.4962358E0,1.5292408E0,6.2133174E0,1.5353683E0,1.3103899E0],"tree_param":{"num_deleted":"0","num_feature":"7","num_nodes":"65","size_leaf_vector":"1"}},{"base_weights":[-7.889411E-3,7.015918E-2,-6.505188E-2,5.2031215E-2,1.5855098E-1,-5.0808333E-2,-1.6722183E-1,1.2159027E-1,2.984759E-2,-2.6128286E-1,-2.3295738E-2,-1.021191E-2,1.5934992E-1,-4.0584713E-1,5.4748733E-2,2.388584E-3,-3.1553954E-1,1.00355886E-1,-1.1532799E-1,-3.2819173E-1,3.0460092E-1,-1.8823893E-1,-1.8135278E-1,9.4471976E-2,-6.1514024E-2,-4.9574092E-2,7.549815E-2,-1.7274861E-1,-9.6790105E-2,-5.3175382E-2,6.857633E-2,7.908796E-2,-8.618445E-2,6.261798E-2,-2.0970924E-1,-1.328563E-2,2.2110285E-1,-6.629485E-3,-8.4370375E-2,-1.4927594E-3,-6.0287155E-2,5.700712E-2,-3.5305172E-2,2.8343614E-2,-7.648842E-2],"categories":[],"categories_nodes":[],"categories_segments":[],"categories_sizes":[],"default_left":[0,0,0,0,0,0,0,0,0,0,0,0,0,0,0,0,0,0,0,0,0,0,0,0,0,0,0,0,0,0,0,0,0,0,0,0,0,0,0,0,0,0,0,0,0],"id":18,"left_children":[1,3,5,7,-1,9,-1,-1,11,13,15,17,19,21,23,25,27,29,31,33,35,-1,37,-1,-1,39,41,-1,43,-1,-1,-1,-1,-1,-1,-1,-1,-1,-1,-1,-1,-1,-1,-1,-1],"loss_changes":[5.8742166E-1,4.354071E-1,5.0417125E-1,4.1659117E-1,0E0,4.27614E-1,0E0,0E0,2.742429E-1,4.133224E-1,5.061803E-1,4.88957E-1,9.834087E-1,1.8434596E-1,3.0572164E-1,2.426533E-1,2.5442576E-1,7.7215445E-1,1.478131E0,8.119118E-1,1.5609062E0,0E0,6.351119E-2,0E0,0E0,2.5126174E-1,6.0918725E-1,0E0,1.4999922E-1,0E0,0E0,0E0,0E0,0E0,0E0,0E0,0E0,0E0,0E0,0E0,0E0,0E0,0E0,0E0,0E0],"parents":[2147483647,0,0,1,1,2,2,3,3,5,5,8,8,9,9,10,10,11,11,12,12,13,13,14,14,15,15,16,16,17,17,18,18,19,19,20,20,22,22,25,25,26,26,28,28],"right_children":[2,4,6,8,-1,10,-1,-1,12,14,16,18,20,22,24,26,28,30,32,34,36,-1,38,-1,-1,40,42,-1,44,-1,-1,-1,-1,-1,-1,-1,-1,-1,-1,-1,-1,-1,-1,-1,-1],"split_conditions":[1E0,2.0322945E0,-1.9118033E-1,1.7635883E-1,1.5855098E-1,4.2332393E-1,-1.6722183E-1,1.2159027E-1,1.7454847E0,-3.2386705E-1,-3.2386705E-1,1.0557008E0,-1.0091534E0,-5.3284967E-1,1.3682847E-1,-6.68759E-1,-7.5160897E-1,8.338277E-1,8.723347E-1,1.175497E0,1.5171664E0,-1.8823893E-1,1.3682847E-1,9.4471976E-2,-6.1514024E-2,-5.19617E-1,-7.5160897E-1,-1.7274861E-1,-5.19617E-1,-5.3175382E-2,6.857633E-2,7.908796E-2,-8.618445E-2,6.261798E-2,-2.0970924E-1,-1.328563E-2,2.2110285E-1,-6.629485E-3,-8.4370375E-2,-1.4927594E-3,-6.0287155E-2,5.700712E-2,-3.5305172E-2,2.8343614E-2,-7.648842E-2],"split_indices":[1,5,6,5,0,0,0,0,2,2,2,2,0,6,0,2,5,6,5,6,6,0,0,0,0,5,5,0,5,0,0,0,0,0,0,0,0,0,0,0,0,0,0,0,0],"split_type":[0,0,0,0,0,0,0,0,0,0,0,0,0,0,0,0,0,0,0,0,0,0,0,0,0,0,0,0,0,0,0,0,0,0,0,0,0,0,0,0,0,0,0,0,0],"sum_hessian":[1.2964308E2,5.4712402E1,7.493067E1,5.3701958E1,1.010446E0,7.3896095E1,1.034581E0,2.1525629E0,5.1549393E1,7.560506E0,6.633559E1,4.0074215E1,1.1475181E1,4.99254E0,2.567966E0,6.1888264E1,4.447324E0,1.9552711E1,2.0521503E1,2.3449082E0,9.130272E0,1.6090821E0,3.3834577E0,1.1770958E0,1.3908702E0,3.6364258E1,2.5524002E1,1.2854295E0,3.1618946E0,6.057232E0,1.3495479E1,6.2389197E0,1.4282583E1,1.1365327E0,1.2083756E0,5.5499287E0,3.5803435E0,1.7748413E0,1.6086164E0,2.88869E1,7.477359E0,1.60345E1,9.489504E0,1.6134769E0,1.5484177E0],"tree_param":{"num_deleted":"0","num_feature":"7","num_nodes":"45","size_leaf_vector":"1"}},{"base_weights":[-7.548219E-3,5.911017E-2,-5.635004E-2,2.53683E-1,2.7510017E-2,-2.3383032E-1,-3.3877015E-2,1.928783E-1,4.085337E-2,-1.7803498E-4,3.2280713E-1,-3.6896393E-1,4.5492146E-2,-1.0957338E-2,-3.0038145E-1,2.7994874E-1,-8.636576E-2,2.329795E-1,-4.358864E-2,1.89423E-1,-3.517482E-2,-1.7432213E-1,-1.6966343E-1,8.173449E-2,-5.6579895E-2,-5.5463802E-2,5.199054E-2,-8.805918E-2,-1.6927479E-1,-9.711029E-3,1.6882324E-1,-1.9952229E-1,4.59774E-1,-1.4950967E-1,2.8886423E-2,-5.377537E-3,-8.001449E-2,-2.0323336E-1,-1.028028E-2,1.9125496E-1,-8.865506E-2,-8.400944E-2,4.508927E-2,2.1929102E-2,-1.1092102E-1,1.8946286E-1,6.286437E-2,7.6634355E-2,-1.3205208E-1,-6.498516E-2,5.8166247E-2,4.364331E-2,-2.3653616E-1,-4.0875074E-2,8.195085E-2,-4.5294673E-3,1.0704694E-1,5.7807308E-2,-7.6803915E-2],"categories":[],"categories_nodes":[],"categories_segments":[],"categories_sizes":[],"default_left":[0,0,0,0,0,0,0,0,0,0,0,0,0,0,0,0,0,0,0,0,0,0,0,0,0,0,0,0,0,0,0,0,0,0,0,0,0,0,0,0,0,0,0,0,0,0,0,0,0,0,0,0,0,0,0,0,0,0,0],"id":19,"left_children":[1,3,5,7,9,11,13,-1,15,17,19,21,23,25,27,29,-1,31,33,-1,-1,-1,35,-1,-1,37,39,41,-1,-1,-1,43,45,47,49,-1,-1,51,53,55,57,-1,-1,-1,-1,-1,-1,-1,-1,-1,-1,-1,-1,-1,-1,-1,-1,-1,-1],"loss_changes":[4.2355832E-1,3.317353E-1,2.9157984E-1,6.0128254E-1,3.967133E-1,3.289484E-1,4.1097087E-1,0E0,5.494619E-1,4.692069E-1,6.3888884E-1,1.4167166E-1,2.4194096E-1,1.8075025E-1,2.4908882E-1,3.6801478E-1,0E0,8.054757E-1,3.0430338E-1,0E0,0E0,0E0,5.9169874E-2,0E0,0E0,2.4946173E-1,5.421233E-1,2.3152612E-1,0E0,0E0,0E0,1.7553872E-1,8.5834146E-2,2.0001674E0,1.0158223E0,0E0,0E0,1.9042525E0,1.1050655E0,4.7649407E-1,7.096209E-1,0E0,0E0,0E0,0E0,0E0,0E0,0E0,0E0,0E0,0E0,0E0,0E0,0E0,0E0,0E0,0E0,0E0,0E0],"parents":[2147483647,0,0,1,1,2,2,3,3,4,4,5,5,6,6,8,8,9,9,10,10,11,11,12,12,13,13,14,14,15,15,17,17,18,18,22,22,25,25,26,26,27,27,31,31,32,32,33,33,34,34,37,37,38,38,39,39,40,40],"right_children":[2,4,6,8,10,12,14,-1,16,18,20,22,24,26,28,30,-1,32,34,-1,-1,-1,36,-1,-1,38,40,42,-1,-1,-1,44,46,48,50,-1,-1,52,54,56,58,-1,-1,-1,-1,-1,-1,-1,-1,-1,-1,-1,-1,-1,-1,-1,-1,-1,-1],"split_conditions":[1E0,4.9215832E-1,4.2332393E-1,-1.0091534E0,-4.3616244E-1,-3.2386705E-1,-3.2386705E-1,1.928783E-1,1.3232436E0,8.80135E-1,1.0557008E0,-5.3284967E-1,-9.836009E-1,-6.68759E-1,-5.3284967E-1,8.80135E-1,-8.636576E-2,-1.0091534E0,1.3232436E0,1.89423E-1,-3.517482E-2,-1.7432213E-1,1.3682847E-1,8.173449E-2,-5.6579895E-2,9.963148E-1,1.2828102E0,-4.4919086E-1,-1.6927479E-1,-9.711029E-3,1.6882324E-1,1.3363186E0,-7.2265786E-1,1.175497E0,1.175497E0,-5.377537E-3,-8.001449E-2,-5.3284967E-1,-5.3284967E-1,-9.836009E-1,-8.74519E-1,-8.400944E-2,4.508927E-2,2.1929102E-2,-1.1092102E-1,1.8946286E-1,6.286437E-2,7.6634355E-2,-1.3205208E-1,-6.498516E-2,5.8166247E-2,4.364331E-2,-2.3653616E-1,-4.0875074E-2,8.195085E-2,-4.5294673E-3,1.0704694E-1,5.7807308E-2,-7.6803915E-2],"split_indices":[1,6,0,0,0,2,2,0,3,3,2,6,5,2,6,3,0,0,3,0,0,0,0,0,0,0,0,3,0,0,0,5,0,6,6,0,0,6,6,5,6,0,0,0,0,0,0,0,0,0,0,0,0,0,0,0,0,0,0],"split_type":[0,0,0,0,0,0,0,0,0,0,0,0,0,0,0,0,0,0,0,0,0,0,0,0,0,0,0,0,0,0,0,0,0,0,0,0,0,0,0,0,0,0,0,0,0,0,0,0,0,0,0,0,0,0,0,0,0,0,0],"sum_hessian":[1.2817949E2,5.408863E1,7.4090866E1,6.575171E0,4.751346E1,7.27014E0,6.6820724E1,1.6099228E0,4.965248E0,4.435407E1,3.1593897E0,4.6834207E0,2.5867195E0,6.2487816E1,4.3329067E0,2.9604788E0,2.0047696E0,6.276457E0,3.8077614E1,1.6014718E0,1.5579181E0,1.3408386E0,3.342582E0,1.2301829E0,1.3565367E0,3.6675667E1,2.5812151E1,3.1400104E0,1.1928966E0,1.8276072E0,1.1328716E0,2.200434E0,4.0760226E0,1.5037563E1,2.3040049E1,1.7660664E0,1.5765156E0,7.769173E0,2.8906492E1,1.2788954E1,1.3023198E1,1.6423898E0,1.4976206E0,1.0651019E0,1.1353321E0,1.5133135E0,2.562709E0,6.334039E0,8.703525E0,9.135138E0,1.3904912E1,5.339173E0,2.4300003E0,2.0372095E1,8.534396E0,6.097831E0,6.6911225E0,4.8009443E0,8.222254E0],"tree_param":{"num_deleted":"0","num_feature":"7","num_nodes":"59","size_leaf_vector":"1"}},{"base_weights":[-5.1650577E-3,-2.2646492E-2,1.5807919E-1,-4.4774648E-2,8.941683E-2,-1.918691E-1,2.7119875E-1,-2.3631714E-2,-3.930956E-1,3.514501E-1,-1.6765173E-1,6.0023934E-2,-1.3582492E-1,-8.983487E-3,1.9742197E-1,4.2271563E-1,-5.955766E-2,-1.045632E0,3.057005E-1,-7.1626194E-2,4.706781E-1,-7.156114E-3,-1.8431951E-1,3.78777E-1,-4.0637738E-1,-9.833338E-2,2.2244619E-1,-3.551823E-2,-3.2734805E-1,-3.7726712E-1,-1.01220526E-1,1.9727293E-1,-6.3994795E-2,-4.629905E-2,6.5637964E-1,-2.7246383E-1,5.584652E-1,2.1996933E-1,-7.293608E-2,-2.2607274E-1,7.368477E-3,-1.6162822E-2,6.980371E-2,6.818372E-2,-1.97973E-1,2.3560484E-1,7.0406295E-2,-2.3215173E-1,4.3401197E-2,4.7658235E-2,2.081493E-1],"categories":[],"categories_nodes":[],"categories_segments":[],"categories_sizes":[],"default_left":[0,0,0,0,0,0,0,0,0,0,0,0,0,0,0,0,0,0,0,0,0,0,0,0,0,0,0,0,0,0,0,0,0,0,0,0,0,0,0,0,0,0,0,0,0,0,0,0,0,0,0],"id":20,"left_children":[1,3,5,7,9,11,13,15,17,19,21,-1,-1,23,-1,25,27,29,31,-1,33,35,-1,37,39,-1,-1,41,43,-1,-1,-1,-1,-1,45,47,49,-1,-1,-1,-1,-1,-1,-1,-1,-1,-1,-1,-1,-1,-1],"loss_changes":[3.6918047E-1,2.9313084E-1,5.475534E-1,7.126912E-1,1.3765047E0,4.6313822E-1,1.0762134E0,1.52431E0,2.8486533E0,8.1673455E-1,7.5209475E-1,0E0,0E0,1.1883895E0,0E0,1.9386864E0,5.510195E-1,4.0118217E-2,7.7069694E-1,0E0,1.1068685E0,1.4688023E0,0E0,1.0413431E0,5.8674765E-1,0E0,0E0,4.1293174E-1,1.4554935E0,0E0,0E0,0E0,0E0,0E0,1.8929863E-1,1.501601E0,5.9050918E-2,0E0,0E0,0E0,0E0,0E0,0E0,0E0,0E0,0E0,0E0,0E0,0E0,0E0,0E0],"parents":[2147483647,0,0,1,1,2,2,3,3,4,4,5,5,6,6,7,7,8,8,9,9,10,10,13,13,15,15,16,16,17,17,18,18,20,20,21,21,23,23,24,24,27,27,28,28,34,34,35,35,36,36],"right_children":[2,4,6,8,10,12,14,16,18,20,22,-1,-1,24,-1,26,28,30,32,-1,34,36,-1,38,40,-1,-1,42,44,-1,-1,-1,-1,-1,46,48,50,-1,-1,-1,-1,-1,-1,-1,-1,-1,-1,-1,-1,-1,-1],"split_conditions":[1.7454847E0,1.3363186E0,-1.0091534E0,1.1043266E0,1.175497E0,1.175497E0,1.5171664E0,-1.0091534E0,1.175497E0,1.50489E-1,1.4005927E0,6.0023934E-2,-1.3582492E-1,8.338277E-1,1.9742197E-1,3.6591685E-1,1.3232436E0,-1.0091534E0,1.4005927E0,-7.1626194E-2,-1.0091534E0,1.8588357E0,-1.8431951E-1,1.7663522E0,1.1043266E0,-9.833338E-2,2.2244619E-1,8.80135E-1,6.403428E-1,-3.7726712E-1,-1.01220526E-1,1.9727293E-1,-6.3994795E-2,-4.629905E-2,1.8003025E0,1.3232436E0,1.8003025E0,2.1996933E-1,-7.293608E-2,-2.2607274E-1,7.368477E-3,-1.6162822E-2,6.980371E-2,6.818372E-2,-1.97973E-1,2.3560484E-1,7.0406295E-2,-2.3215173E-1,4.3401197E-2,4.7658235E-2,2.081493E-1],"split_indices":[2,5,0,5,6,6,6,0,6,6,2,0,0,6,0,2,3,0,2,0,0,6,0,3,5,0,0,3,5,0,0,0,0,0,5,3,5,0,0,0,0,0,0,0,0,0,0,0,0,0,0],"split_type":[0,0,0,0,0,0,0,0,0,0,0,0,0,0,0,0,0,0,0,0,0,0,0,0,0,0,0,0,0,0,0,0,0,0,0,0,0,0,0,0,0,0,0,0,0,0,0,0,0,0,0],"sum_hessian":[1.271126E2,1.1559508E2,1.1517528E1,9.7034904E1,1.8560175E1,2.6434743E0,8.874053E0,9.248872E1,4.546182E0,9.009516E0,9.550659E0,1.1495072E0,1.4939673E0,5.7132106E0,3.1608422E0,6.087742E0,8.640098E1,2.0942428E0,2.4519393E0,1.3456686E0,7.663847E0,7.7738786E0,1.7767806E0,2.9153652E0,2.7978454E0,1.8064679E0,4.2812743E0,8.0323044E1,6.077933E0,1.014915E0,1.0793278E0,1.3021553E0,1.149784E0,1.7941804E0,5.8696666E0,5.64456E0,2.1293185E0,1.7429421E0,1.1724231E0,1.1348429E0,1.6630025E0,7.592516E1,4.3978863E0,2.396977E0,3.6809556E0,3.834539E0,2.0351276E0,2.1750844E0,3.4694757E0,1.0887773E0,1.0405412E0],"tree_param":{"num_deleted":"0","num_feature":"7","num_nodes":"51","size_leaf_vector":"1"}},{"base_weights":[-1.6202045E-3,-1.5114745E-2,1.268385E-1,-3.288964E-2,7.438905E-2,-1.0679994E-1,3.257112E-1,-1.48439715E-2,-3.2224363E-1,2.866064E-1,-1.17268234E-1,2.389771E-1,-1.893097E-1,-2.6673526E-2,6.196611E-1,3.519299E-1,-4.237224E-2,-8.131387E-1,2.6926836E-1,-5.6810655E-2,3.9451867E-1,1.0052568E-1,-2.4192049E-1,1.4304175E-2,1.0460528E-1,3.0157471E-2,-5.0387498E-2,2.3382156E-1,2.8782967E-2,-7.490616E-2,6.603976E-1,-2.7992172E-2,-4.0870267E-1,-2.9296118E-1,-8.1710935E-2,1.8020855E-1,-5.2646205E-2,-3.6689114E-2,5.665646E-1,-5.697315E-2,-2.0662616E-1,7.368964E-2,2.3134701E-1,-1.7559618E-2,1.8510756E-1,1.8792052E-2,-1.9576333E-1,2.0752478E-1,5.8061812E-2,-9.017942E-2,1.3887969E-1],"categories":[],"categories_nodes":[],"categories_segments":[],"categories_sizes":[],"default_left":[0,0,0,0,0,0,0,0,0,0,0,0,0,0,0,0,0,0,0,0,0,0,0,0,0,0,0,0,0,0,0,0,0,0,0,0,0,0,0,0,0,0,0,0,0,0,0,0,0,0,0],"id":21,"left_children":[1,3,5,7,9,11,13,15,17,19,21,23,-1,25,27,29,31,33,35,-1,37,-1,39,-1,-1,-1,-1,-1,-1,-1,41,43,45,-1,-1,-1,-1,-1,47,49,-1,-1,-1,-1,-1,-1,-1,-1,-1,-1,-1],"loss_changes":[2.2113517E-1,1.8593104E-1,5.9831524E-1,5.012738E-1,8.233111E-1,1.2981783E0,7.207384E-1,9.4658273E-1,1.8569648E0,5.6287324E-1,6.963454E-1,7.864028E-2,0E0,8.9678995E-2,2.3876822E-1,1.3803773E0,4.4541746E-1,2.839613E-2,5.9326243E-1,0E0,7.8700995E-1,0E0,7.156985E-1,0E0,0E0,0E0,0E0,0E0,0E0,0E0,2.208519E-2,1.7011199E0,4.0891922E-1,0E0,0E0,0E0,0E0,0E0,1.5720248E-1,1.095599E0,0E0,0E0,0E0,0E0,0E0,0E0,0E0,0E0,0E0,0E0,0E0],"parents":[2147483647,0,0,1,1,2,2,3,3,4,4,5,5,6,6,7,7,8,8,9,9,10,10,11,11,13,13,14,14,15,15,16,16,17,17,18,18,20,20,22,22,30,30,31,31,32,32,38,38,39,39],"right_children":[2,4,6,8,10,12,14,16,18,20,22,24,-1,26,28,30,32,34,36,-1,38,-1,40,-1,-1,-1,-1,-1,-1,-1,42,44,46,-1,-1,-1,-1,-1,48,50,-1,-1,-1,-1,-1,-1,-1,-1,-1,-1,-1],"split_conditions":[1.7454847E0,1.3363186E0,1.3232436E0,1.1043266E0,1.175497E0,1.5683106E0,1.175497E0,-1.0091534E0,1.175497E0,1.50489E-1,8.80135E-1,-7.2265786E-1,-1.893097E-1,1.3363186E0,1.8588357E0,3.6591685E-1,1.8588357E0,-1.0091534E0,1.4005927E0,-5.6810655E-2,-1.0091534E0,1.0052568E-1,1.4005927E0,1.4304175E-2,1.0460528E-1,3.0157471E-2,-5.0387498E-2,2.3382156E-1,2.8782967E-2,-7.490616E-2,1.175497E0,8.723347E-1,1.0557008E0,-2.9296118E-1,-8.1710935E-2,1.8020855E-1,-5.2646205E-2,-3.6689114E-2,1.8003025E0,1.8588357E0,-2.0662616E-1,7.368964E-2,2.3134701E-1,-1.7559618E-2,1.8510756E-1,1.8792052E-2,-1.9576333E-1,2.0752478E-1,5.8061812E-2,-9.017942E-2,1.3887969E-1],"split_indices":[2,5,3,5,6,5,6,0,6,6,3,0,0,5,6,2,6,0,2,0,0,0,2,0,0,0,0,0,0,0,6,5,2,0,0,0,0,0,5,6,0,0,0,0,0,0,0,0,0,0,0],"split_type":[0,0,0,0,0,0,0,0,0,0,0,0,0,0,0,0,0,0,0,0,0,0,0,0,0,0,0,0,0,0,0,0,0,0,0,0,0,0,0,0,0,0,0,0,0,0,0,0,0,0,0],"sum_hessian":[1.2546043E2,1.1433221E2,1.1128219E1,9.591634E1,1.8415857E1,5.329739E0,5.7984796E0,9.127523E1,4.641114E0,8.504085E0,9.911773E0,3.5393603E0,1.7903785E0,3.0506473E0,2.7478325E0,5.5496726E0,8.572556E1,2.3315146E0,2.3095994E0,1.4321911E0,7.0718937E0,1.7765698E0,8.135203E0,1.812871E0,1.7264894E0,1.7571675E0,1.2934798E0,1.7314814E0,1.0163511E0,1.9456155E0,3.604057E0,8.3523315E1,2.2022433E0,1.1716567E0,1.1598577E0,1.1225042E0,1.1870953E0,1.8384526E0,5.2334414E0,6.5511446E0,1.5840588E0,1.4377506E0,2.1663065E0,8.061563E1,2.907684E0,1.004217E0,1.1980263E0,3.278702E0,1.9547392E0,4.7480536E0,1.803091E0],"tree_param":{"num_deleted":"0","num_feature":"7","num_nodes":"51","size_leaf_vector":"1"}},{"base_weights":[3.1690728E-3,-1.0021032E-2,1.2520552E-1,-1.3425492E-1,6.634676E-3,4.5396906E-1,-3.3079046E-1,2.987106E-1,-5.509211E-1,-2.7503725E-2,2.4441302E-1,1.2850226E-2,5.109468E-1,-2.2547064E-2,-5.376427E-1,-5.7474848E-2,5.299433E-1,-2.8205955E-1,-9.8020405E-2,4.4209054E-3,-1.8629536E-1,3.768672E-1,-2.3264857E-1,2.1081774E-1,1.5798534E-1,8.026853E-2,-1.026013E-1,-2.3717256E-1,-2.7277136E-2,6.25864E-1,2.1734698E-2,1.1342967E-1,-1.4138399E-1,-1.3437696E-2,1.8137467E-1,-2.4103814E-1,6.0338717E-2,2.2421414E-1,-6.698193E-2,-1.500153E-1,5.497627E-2,-5.6927536E-2,1.2336395E-1,4.5835383E-2,2.2691171E-1,-8.0913334E-4,-7.8581244E-2,-1.13939844E-1,1.3874714E-2,-1.4914227E-1,5.9453454E-2],"categories":[],"categories_nodes":[],"categories_segments":[],"categories_sizes":[],"default_left":[0,0,0,0,0,0,0,0,0,0,0,0,0,0,0,0,0,0,0,0,0,0,0,0,0,0,0,0,0,0,0,0,0,0,0,0,0,0,0,0,0,0,0,0,0,0,0,0,0,0,0],"id":22,"left_children":[1,3,5,7,9,11,13,15,17,19,21,-1,23,25,27,-1,29,-1,31,33,35,37,39,-1,41,-1,-1,-1,-1,43,-1,-1,-1,45,-1,47,-1,-1,49,-1,-1,-1,-1,-1,-1,-1,-1,-1,-1,-1,-1],"loss_changes":[2.0187704E-1,2.3554727E-1,1.983799E0,2.5916123E0,8.2617706E-1,1.5447557E-1,3.514765E-1,9.230368E-1,1.1785333E0,4.528867E-1,8.949295E-1,0E0,3.3037198E-1,4.0047514E-1,3.08751E-1,0E0,1.8238628E-1,0E0,9.6864295E-1,8.143883E-1,3.6556172E-1,1.7571939E0,4.6915027E-1,0E0,3.937805E-1,0E0,0E0,0E0,0E0,1.4122236E-1,0E0,0E0,0E0,1.9688061E-1,0E0,5.5790555E-1,0E0,0E0,7.419073E-1,0E0,0E0,0E0,0E0,0E0,0E0,0E0,0E0,0E0,0E0,0E0,0E0],"parents":[2147483647,0,0,1,1,2,2,3,3,4,4,5,5,6,6,7,7,8,8,9,9,10,10,12,12,13,13,14,14,16,16,18,18,19,19,20,20,21,21,22,22,24,24,29,29,33,33,35,35,38,38],"right_children":[2,4,6,8,10,12,14,16,18,20,22,-1,24,26,28,-1,30,-1,32,34,36,38,40,-1,42,-1,-1,-1,-1,44,-1,-1,-1,46,-1,48,-1,-1,50,-1,-1,-1,-1,-1,-1,-1,-1,-1,-1,-1,-1],"split_conditions":[1.8003025E0,-1.0091534E0,-7.2265786E-1,1.1043266E0,1.1043266E0,7.108088E-1,1.175497E0,3.6591685E-1,1.175497E0,4.083508E-1,1.7663522E0,1.2850226E-2,1.5171664E0,1.3232436E0,1.5171664E0,-5.7474848E-2,1.5171664E0,-2.8205955E-1,1.5683106E0,1.7635883E-1,-4.3616244E-1,1.175497E0,1.5683106E0,2.1081774E-1,1.3232436E0,8.026853E-2,-1.026013E-1,-2.3717256E-1,-2.7277136E-2,8.338277E-1,2.1734698E-2,1.1342967E-1,-1.4138399E-1,-6.082234E-3,1.8137467E-1,8.723347E-1,6.0338717E-2,2.2421414E-1,-7.2265786E-1,-1.500153E-1,5.497627E-2,-5.6927536E-2,1.2336395E-1,4.5835383E-2,2.2691171E-1,-8.0913334E-4,-7.8581244E-2,-1.13939844E-1,1.3874714E-2,-1.4914227E-1,5.9453454E-2],"split_indices":[5,0,0,5,5,2,6,2,6,5,3,0,6,3,6,0,6,0,5,5,0,6,5,0,3,0,0,0,0,6,0,0,0,3,0,5,0,0,0,0,0,0,0,0,0,0,0,0,0,0,0],"split_type":[0,0,0,0,0,0,0,0,0,0,0,0,0,0,0,0,0,0,0,0,0,0,0,0,0,0,0,0,0,0,0,0,0,0,0,0,0,0,0,0,0,0,0,0,0,0,0,0,0,0,0],"sum_hessian":[1.2363543E2,1.1240428E2,1.1231144E1,1.2453537E1,9.9950745E1,6.528603E0,4.702541E0,6.2461452E0,6.2073917E0,8.8175514E1,1.1775237E1,1.00787E0,5.520733E0,2.3338006E0,2.3687403E0,2.0566998E0,4.1894455E0,2.7595522E0,3.4478393E0,7.4224945E1,1.3950566E1,9.380738E0,2.3944993E0,2.935052E0,2.585681E0,1.3082174E0,1.0255831E0,1.0209441E0,1.3477961E0,3.1590714E0,1.0303739E0,1.5094556E0,1.9383838E0,7.3029465E1,1.1954795E0,1.2554473E1,1.3960929E0,4.740029E0,4.6407094E0,1.3342952E0,1.0602041E0,1.1951241E0,1.3905568E0,1.1524057E0,2.0066657E0,7.0972755E1,2.0567102E0,8.248421E0,4.306053E0,1.4361035E0,3.2046058E0],"tree_param":{"num_deleted":"0","num_feature":"7","num_nodes":"51","size_leaf_vector":"1"}},{"base_weights":[5.15901E-3,-3.6952965E-2,3.0391771E-2,-2.087548E-3,-1.8865529E-1,-1.9080241E-1,6.177242E-2,1.5812436E-1,-9.1709115E-2,-8.407896E-3,-1.3895191E-1,1.8369569E-1,1.2266282E-2,4.3486753E-1,-3.2218855E-3,2.8478214E-1,-2.3708057E-1,-1.7005254E-1,4.2383373E-1,1.6908E-2,3.1895238E-1,1.6606672E-1,-1.1491933E-2,8.041138E-2,2.2435321E-1,-4.406197E-1,3.1526658E-1,-5.793825E-2,4.9659353E-1,1.8678974E-2,-5.477977E-1,-9.615072E-2,2.87623E-1,-1.3074146E-1,1.2191424E-1,3.7676328E-1,-3.7883095E-2,1.8415676E-1,-6.606777E-2,-5.5547062E-2,1.3777888E-1,9.2817396E-2,-7.472486E-2,-2.0839314E-1,-5.50076E-2,-6.020337E-3,1.758642E-1,2.1641175E-1,2.20673E-2,-2.6371913E-2,6.5204136E-2,-1.1853557E-1,-2.3203672E-1,-6.764402E-2,1.8481554E-2,-5.532464E-3,1.704032E-1,-8.687324E-2,4.6801116E-2,-8.583361E-2,1.6656106E-2,1.3831869E-1,-9.135759E-2],"categories":[],"categories_nodes":[],"categories_segments":[],"categories_sizes":[],"default_left":[0,0,0,0,0,0,0,0,0,0,0,0,0,0,0,0,0,0,0,0,0,0,0,0,0,0,0,0,0,0,0,0,0,0,0,0,0,0,0,0,0,0,0,0,0,0,0,0,0,0,0,0,0,0,0,0,0,0,0,0,0,0,0],"id":23,"left_children":[1,3,5,7,-1,9,11,13,15,17,-1,19,21,23,25,27,29,-1,31,33,35,37,39,41,-1,43,45,-1,47,49,51,-1,-1,53,-1,55,-1,-1,57,59,61,-1,-1,-1,-1,-1,-1,-1,-1,-1,-1,-1,-1,-1,-1,-1,-1,-1,-1,-1,-1,-1,-1],"loss_changes":[1.32869E-1,9.666716E-1,5.5374646E-1,6.6493714E-1,0E0,4.9017644E-1,4.1503167E-1,7.4338746E-1,1.6920763E0,1.9238547E0,0E0,4.4337738E-1,1.8548734E-1,6.1961925E-1,1.7395216E0,9.7888166E-1,1.755355E0,0E0,2.1005182E0,6.2612474E-1,3.2887638E-1,7.4605757E-1,2.9998323E-1,3.7838554E-1,0E0,2.1626198E-1,6.6881186E-1,0E0,5.482867E-1,2.9464045E-1,3.7122726E-2,0E0,0E0,1.5933861E-1,0E0,7.605443E-1,0E0,0E0,3.1185147E-1,9.130905E-1,1.6299706E0,0E0,0E0,0E0,0E0,0E0,0E0,0E0,0E0,0E0,0E0,0E0,0E0,0E0,0E0,0E0,0E0,0E0,0E0,0E0,0E0,0E0,0E0],"parents":[2147483647,0,0,1,1,2,2,3,3,5,5,6,6,7,7,8,8,9,9,11,11,12,12,13,13,14,14,15,15,16,16,18,18,19,19,20,20,21,21,22,22,23,23,25,25,26,26,28,28,29,29,30,30,33,33,35,35,38,38,39,39,40,40],"right_children":[2,4,6,8,-1,10,12,14,16,18,-1,20,22,24,26,28,30,-1,32,34,36,38,40,42,-1,44,46,-1,48,50,52,-1,-1,54,-1,56,-1,-1,58,60,62,-1,-1,-1,-1,-1,-1,-1,-1,-1,-1,-1,-1,-1,-1,-1,-1,-1,-1,-1,-1,-1,-1],"split_conditions":[-4.4919086E-1,-2.8762507E-1,-8.74519E-1,-8.74519E-1,-1.8865529E-1,1.5693058E0,1.7635883E-1,-9.836009E-1,-1.013651E0,-9.836009E-1,-1.3895191E-1,-6.68759E-1,4.9215832E-1,1.2828102E0,-7.5160897E-1,9.963148E-1,1.2828102E0,-1.7005254E-1,9.963148E-1,1.8558012E0,1.8558012E0,-1.0091534E0,1.8003025E0,9.963148E-1,2.2435321E-1,-1.013651E0,-8.922995E-1,-5.793825E-2,-8.922995E-1,9.963148E-1,1.8558012E0,-9.615072E-2,2.87623E-1,-5.19617E-1,1.2191424E-1,-9.836009E-1,-3.7883095E-2,1.8415676E-1,1.3363186E0,-1.0091534E0,-7.2265786E-1,9.2817396E-2,-7.472486E-2,-2.0839314E-1,-5.50076E-2,-6.020337E-3,1.758642E-1,2.1641175E-1,2.20673E-2,-2.6371913E-2,6.5204136E-2,-1.1853557E-1,-2.3203672E-1,-6.764402E-2,1.8481554E-2,-5.532464E-3,1.704032E-1,-8.687324E-2,4.6801116E-2,-8.583361E-2,1.6656106E-2,1.3831869E-1,-9.135759E-2],"split_indices":[3,5,6,6,0,0,5,5,2,5,0,2,6,0,5,0,0,0,0,0,0,0,5,0,0,2,3,0,3,0,0,0,0,5,0,5,0,0,5,0,0,0,0,0,0,0,0,0,0,0,0,0,0,0,0,0,0,0,0,0,0,0,0],"split_type":[0,0,0,0,0,0,0,0,0,0,0,0,0,0,0,0,0,0,0,0,0,0,0,0,0,0,0,0,0,0,0,0,0,0,0,0,0,0,0,0,0,0,0,0,0,0,0,0,0,0,0,0,0,0,0,0,0,0,0,0,0,0,0],"sum_hessian":[1.22984344E2,4.5905807E1,7.707854E1,4.4299877E1,1.6059324E0,8.945281E0,6.8133255E1,1.561729E1,2.8682587E1,5.9749746E0,2.9703062E0,1.8893053E1,4.9240204E1,5.127423E0,1.0489866E1,7.722757E0,2.095983E1,2.471074E0,3.5039008E0,8.964168E0,9.928885E0,5.787107E0,4.34531E1,2.993786E0,2.1336367E0,4.258273E0,6.231593E0,2.398726E0,5.324031E0,1.2012174E1,8.947657E0,1.6327411E0,1.8711596E0,6.981708E0,1.9824599E0,8.923933E0,1.0049529E0,1.4143732E0,4.3727336E0,3.4035797E1,9.417299E0,1.8023003E0,1.1914858E0,1.2871584E0,2.9711146E0,3.1987002E0,3.032893E0,3.0161695E0,2.307861E0,8.180735E0,3.8314383E0,6.9776053E0,1.9700509E0,4.5623198E0,2.419388E0,3.204838E0,5.7190948E0,2.0278091E0,2.3449247E0,1.0552934E1,2.3482864E1,5.41617E0,4.0011287E0],"tree_param":{"num_deleted":"0","num_feature":"7","num_nodes":"63","size_leaf_vector":"1"}},{"base_weights":[1.6633708E-3,-3.4865167E-2,2.3448491E-2,-5.7077906E-3,-1.7464958E-1,-1.5946525E-1,4.8753582E-2,1.1090116E-1,-7.41726E-2,-1.4717966E-2,-1.1586619E-1,2.0359257E-2,1.9433773E-1,1.6519193E-1,3.8585387E-2,2.1022795E-1,-1.91543E-1,-1.475211E-1,3.0867773E-1,4.614522E-2,-1.4341494E-1,-1.5582198E-1,3.8561648E-1,-2.7932516E-1,2.2564247E-1,-5.180193E-2,4.7680125E-1,1.5556107E-2,-4.6786544E-1,-8.265823E-2,1.9984743E-1,2.9662314E-1,1.0404768E-2,-2.1117435E-1,9.4368584E-2,2.3233508E-1,4.064174E-2,-1.3255723E-1,6.130692E-2,1.7917752E-2,1.3189892E-1,8.74308E-2,-1.8896902E-1,1.1420532E-2,2.5290945E-1,3.746069E-2,-4.986757E-2,-7.968158E-2,-1.8817441E-1,-2.5438754E-2,1.3826261E-1,-3.0500048E-3,6.3873224E-2,4.4999488E-2,-4.8560694E-2],"categories":[],"categories_nodes":[],"categories_segments":[],"categories_sizes":[],"default_left":[0,0,0,0,0,0,0,0,0,0,0,0,0,0,0,0,0,0,0,0,0,0,0,0,0,0,0,0,0,0,0,0,0,0,0,0,0,0,0,0,0,0,0,0,0,0,0,0,0,0,0,0,0,0,0],"id":24,"left_children":[1,3,5,7,-1,9,11,13,15,17,-1,19,21,-1,23,25,27,-1,29,31,-1,33,35,37,39,41,43,45,47,-1,-1,49,51,-1,-1,-1,53,-1,-1,-1,-1,-1,-1,-1,-1,-1,-1,-1,-1,-1,-1,-1,-1,-1,-1],"loss_changes":[9.888166E-2,7.3774576E-1,3.6784288E-1,3.6828798E-1,0E0,3.1230426E-1,2.8169906E-1,5.220505E-1,1.0088067E0,1.2244059E0,0E0,7.795802E-1,8.076308E-1,0E0,9.9948E-1,6.5007377E-1,1.2125916E0,0E0,1.1772401E0,5.0678194E-1,0E0,1.4215882E0,9.753436E-1,5.840058E-1,3.4542423E-1,1.2584417E0,6.967491E-1,2.7921826E-1,1.2531376E-1,0E0,0E0,4.8236114E-1,2.141181E-1,0E0,0E0,0E0,1.3573182E-1,0E0,0E0,0E0,0E0,0E0,0E0,0E0,0E0,0E0,0E0,0E0,0E0,0E0,0E0,0E0,0E0,0E0,0E0],"parents":[2147483647,0,0,1,1,2,2,3,3,5,5,6,6,7,7,8,8,9,9,11,11,12,12,14,14,15,15,16,16,18,18,19,19,21,21,22,22,23,23,24,24,25,25,26,26,27,27,28,28,31,31,32,32,36,36],"right_children":[2,4,6,8,-1,10,12,14,16,18,-1,20,22,-1,24,26,28,-1,30,32,-1,34,36,38,40,42,44,46,48,-1,-1,50,52,-1,-1,-1,54,-1,-1,-1,-1,-1,-1,-1,-1,-1,-1,-1,-1,-1,-1,-1,-1,-1,-1],"split_conditions":[-4.4919086E-1,-2.8762507E-1,-8.74519E-1,-8.74519E-1,-1.7464958E-1,1.5693058E0,1.2828102E0,-1.2155929E0,-1.013651E0,-9.836009E-1,-1.1586619E-1,9.963148E-1,-1.013651E0,1.6519193E-1,-1.013651E0,1.5693058E0,1.2828102E0,-1.475211E-1,9.963148E-1,4.3702638E-1,-1.4341494E-1,-7.5160897E-1,-9.836009E-1,-5.19617E-1,-7.5160897E-1,-7.5160897E-1,-5.3284967E-1,-8.922995E-1,-8.922995E-1,-8.265823E-2,1.9984743E-1,-9.836009E-1,-4.3616244E-1,-2.1117435E-1,9.4368584E-2,2.3233508E-1,-5.19617E-1,-1.3255723E-1,6.130692E-2,1.7917752E-2,1.3189892E-1,8.74308E-2,-1.8896902E-1,1.1420532E-2,2.5290945E-1,3.746069E-2,-4.986757E-2,-7.968158E-2,-1.8817441E-1,-2.5438754E-2,1.3826261E-1,-3.0500048E-3,6.3873224E-2,4.4999488E-2,-4.8560694E-2],"split_indices":[3,5,6,6,0,0,0,5,2,5,0,0,2,0,2,0,0,0,0,3,0,5,5,5,5,5,6,3,3,0,0,5,0,0,0,0,5,0,0,0,0,0,0,0,0,0,0,0,0,0,0,0,0,0,0],"split_type":[0,0,0,0,0,0,0,0,0,0,0,0,0,0,0,0,0,0,0,0,0,0,0,0,0,0,0,0,0,0,0,0,0,0,0,0,0,0,0,0,0,0,0,0,0,0,0,0,0,0,0,0,0,0,0],"sum_hessian":[1.2223042E2,4.5439175E1,7.679125E1,4.410017E1,1.3390045E0,8.688211E0,6.8103035E1,1.6084795E1,2.8015375E1,5.953045E0,2.7351665E0,5.794203E1,1.0161006E1,1.3374758E0,1.4747318E1,7.9530835E0,2.006229E1,2.1949222E0,3.758123E0,5.595455E1,1.98748E0,3.6551552E0,6.5058513E0,5.2801843E0,9.467134E0,4.417021E0,3.536063E0,1.2006969E1,8.055322E0,1.5136774E0,2.2444456E0,6.075635E0,4.9878918E1,1.4588414E0,2.1963136E0,2.4732325E0,4.032619E0,4.0168624E0,1.2633218E0,6.0533895E0,3.4137444E0,3.0826166E0,1.3344042E0,2.1110432E0,1.4250197E0,7.693576E0,4.313393E0,4.7252865E0,3.330035E0,1.9744362E0,4.1011987E0,4.614146E1,3.7374578E0,2.786958E0,1.245661E0],"tree_param":{"num_deleted":"0","num_feature":"7","num_nodes":"55","size_leaf_vector":"1"}},{"base_weights":[-1.953155E-3,7.126871E-2,-1.3473021E-2,1.9322306E-1,-1.9170976E-1,-2.9117286E-2,1.6366482E-1,4.75922E-2,6.242331E-1,-6.9966903E-3,-1.5232725E-1,-7.0191965E-2,1.5994549E-1,3.7782052E-1,-2.8287262E-1,2.1776995E-1,5.9287418E-2,1.7227445E-2,-4.7156075E-1,-3.2065746E-1,3.3008158E-1,3.0479938E-1,-4.1122362E-1,-4.840741E-2,6.617883E-1,-1.9671251E-1,1.8661866E-1,-3.0279798E-2,4.8521972E-1,-2.6425463E-1,9.018417E-2,3.7353657E-2,-4.418615E-1,1.3708296E-1,1.3662733E-2,1.8842454E-1,-4.917317E-2,-1.8938585E-1,-1.3597948E-2,3.7708838E-2,2.3763901E-1,1.0559336E-1,-2.4157425E-2,-2.066691E-3,-1.086548E-1,2.5245512E-1,2.554165E-2,-3.182101E-1,-4.606846E-2],"categories":[],"categories_nodes":[],"categories_segments":[],"categories_sizes":[],"default_left":[0,0,0,0,0,0,0,0,0,0,0,0,0,0,0,0,0,0,0,0,0,0,0,0,0,0,0,0,0,0,0,0,0,0,0,0,0,0,0,0,0,0,0,0,0,0,0,0,0],"id":25,"left_children":[1,3,5,7,-1,9,11,13,15,17,19,21,-1,23,25,-1,-1,27,29,31,33,35,37,-1,39,-1,41,43,45,-1,-1,-1,47,-1,-1,-1,-1,-1,-1,-1,-1,-1,-1,-1,-1,-1,-1,-1,-1],"loss_changes":[1.043891E-1,1.5811698E0,3.007012E-1,9.1996086E-1,0E0,2.6868305E-1,7.9927796E-1,1.4591188E0,1.8689513E-2,9.641967E-1,1.3252364E0,9.2886245E-1,0E0,1.1212862E0,1.3065805E0,0E0,0E0,1.8313735E0,1.6066006E0,6.8303096E-1,1.3719171E-1,6.434295E-1,2.7062267E-1,0E0,2.1739948E-1,0E0,1.950107E-1,5.807126E-1,1.0101529E0,0E0,0E0,0E0,1.5085299E0,0E0,0E0,0E0,0E0,0E0,0E0,0E0,0E0,0E0,0E0,0E0,0E0,0E0,0E0,0E0,0E0],"parents":[2147483647,0,0,1,1,2,2,3,3,5,5,6,6,7,7,8,8,9,9,10,10,11,11,13,13,14,14,17,17,18,18,19,19,20,20,21,21,22,22,24,24,26,26,27,27,28,28,32,32],"right_children":[2,4,6,8,-1,10,12,14,16,18,20,22,-1,24,26,-1,-1,28,30,32,34,36,38,-1,40,-1,42,44,46,-1,-1,-1,48,-1,-1,-1,-1,-1,-1,-1,-1,-1,-1,-1,-1,-1,-1,-1,-1],"split_conditions":[-1.0091534E0,1.8588357E0,1.7454847E0,1.8003025E0,-1.9170976E-1,1.175497E0,1.5171664E0,1.1043266E0,1.3232436E0,1.7663522E0,1.7663522E0,8.338277E-1,1.5994549E-1,3.6591685E-1,1.175497E0,2.1776995E-1,5.9287418E-2,4.9215832E-1,1.3363186E0,8.80135E-1,1.0557008E0,1.7663522E0,1.1043266E0,-4.840741E-2,8.338277E-1,-1.9671251E-1,1.4005927E0,-6.082234E-3,-7.2265786E-1,-2.6425463E-1,9.018417E-2,3.7353657E-2,7.108088E-1,1.3708296E-1,1.3662733E-2,1.8842454E-1,-4.917317E-2,-1.8938585E-1,-1.3597948E-2,3.7708838E-2,2.3763901E-1,1.0559336E-1,-2.4157425E-2,-2.066691E-3,-1.086548E-1,2.5245512E-1,2.554165E-2,-3.182101E-1,-4.606846E-2],"split_indices":[0,6,2,5,0,6,6,5,3,3,3,6,0,2,6,0,0,6,5,3,2,3,5,0,6,0,2,3,0,0,0,0,2,0,0,0,0,0,0,0,0,0,0,0,0,0,0,0,0],"split_type":[0,0,0,0,0,0,0,0,0,0,0,0,0,0,0,0,0,0,0,0,0,0,0,0,0,0,0,0,0,0,0,0,0,0,0,0,0,0,0,0,0,0,0,0,0,0,0,0,0],"sum_hessian":[1.2161784E2,1.5827768E1,1.0579008E2,1.4129747E1,1.6980207E0,9.797302E1,7.817051E0,1.1391258E1,2.7384892E0,8.39566E1,1.4016425E1,5.283212E0,2.5338387E0,5.6259923E0,5.7652664E0,1.6449219E0,1.0935673E0,8.071094E1,3.245658E0,1.0639286E1,3.3771389E0,2.5669215E0,2.7162905E0,2.0897987E0,3.5361936E0,2.992336E0,2.7729304E0,7.412191E1,6.5890303E0,2.0292988E0,1.2163591E0,2.2709682E0,8.368318E0,1.9166815E0,1.4604574E0,1.3179039E0,1.2490177E0,1.2432492E0,1.4730414E0,1.0758027E0,2.4603908E0,1.5166049E0,1.2563255E0,7.019563E1,3.9262764E0,2.901603E0,3.6874273E0,1.8080869E0,6.560231E0],"tree_param":{"num_deleted":"0","num_feature":"7","num_nodes":"49","size_leaf_vector":"1"}},{"base_weights":[2.6621106E-3,7.071349E-2,-7.860543E-3,1.7476049E-1,-1.436681E-1,-1.8812975E-2,1.5850289E-1,4.990285E-2,5.6162715E-1,1.32704E-4,-2.6873505E-1,-2.942819E-1,6.240611E-1,3.2638288E-1,-2.084306E-1,1.9901109E-1,5.103806E-2,-3.409144E-2,1.9849047E-1,-3.9764732E-1,-5.3248122E-2,1.4291559E-1,-3.8134104E-1,2.1991473E-1,6.1766762E-2,-1.2511271E-1,5.9689486E-1,-1.442756E-1,1.5737963E-1,-5.051621E-3,-4.2139086E-1,5.102756E-1,3.8485207E-2,-2.2460364E-1,8.225371E-2,1.0041213E-1,-1.18483394E-1,-7.242175E-2,1.8502843E-2,3.2385785E-2,2.1909736E-1,1.0630011E-1,-2.8188938E-2,-7.257942E-3,1.9104362E-1,-1.9243313E-2,-1.9445233E-1,5.9131827E-2,2.1394663E-1,1.02928214E-1,-9.793105E-2],"categories":[],"categories_nodes":[],"categories_segments":[],"categories_sizes":[],"default_left":[0,0,0,0,0,0,0,0,0,0,0,0,0,0,0,0,0,0,0,0,0,0,0,0,0,0,0,0,0,0,0,0,0,0,0,0,0,0,0,0,0,0,0,0,0,0,0,0,0,0,0],"id":26,"left_children":[1,3,5,7,-1,9,11,13,15,17,19,21,23,25,27,-1,-1,29,31,33,35,-1,-1,-1,-1,37,39,-1,41,43,45,47,49,-1,-1,-1,-1,-1,-1,-1,-1,-1,-1,-1,-1,-1,-1,-1,-1,-1,-1],"loss_changes":[8.7903194E-2,1.0235605E0,1.9711418E-1,6.7488503E-1,0E0,4.775878E-1,1.5932763E0,9.321848E-1,2.4687886E-2,6.4998657E-1,1.7626035E-1,3.6692753E0,1.3942957E-2,8.360618E-1,7.599844E-1,0E0,0E0,9.163185E-1,6.8321717E-1,1.2175534E0,6.3791406E-1,0E0,0E0,0E0,0E0,8.358269E-2,1.8678665E-1,0E0,2.1566816E-1,9.6116513E-1,4.189061E-1,1.5783441E-1,1.2671881E0,0E0,0E0,0E0,0E0,0E0,0E0,0E0,0E0,0E0,0E0,0E0,0E0,0E0,0E0,0E0,0E0,0E0,0E0],"parents":[2147483647,0,0,1,1,2,2,3,3,5,5,6,6,7,7,8,8,9,9,10,10,11,11,12,12,13,13,14,14,17,17,18,18,19,19,20,20,25,25,26,26,28,28,29,29,30,30,31,31,32,32],"right_children":[2,4,6,8,-1,10,12,14,16,18,20,22,24,26,28,-1,-1,30,32,34,36,-1,-1,-1,-1,38,40,-1,42,44,46,48,50,-1,-1,-1,-1,-1,-1,-1,-1,-1,-1,-1,-1,-1,-1,-1,-1,-1,-1],"split_conditions":[-1.0091534E0,1.8588357E0,1.8588357E0,1.8003025E0,-1.436681E-1,1.8003025E0,1.1043266E0,1.1043266E0,1.3232436E0,8.723347E-1,1.3232436E0,8.723347E-1,1.3232436E0,3.6591685E-1,1.175497E0,1.9901109E-1,5.103806E-2,1.3232436E0,1.1043266E0,1.4005927E0,1.4005927E0,1.4291559E-1,-3.8134104E-1,2.1991473E-1,6.1766762E-2,4.083508E-1,8.338277E-1,-1.442756E-1,1.5171664E0,1.5171664E0,6.403428E-1,1.175497E0,1.175497E0,-2.2460364E-1,8.225371E-2,1.0041213E-1,-1.18483394E-1,-7.242175E-2,1.8502843E-2,3.2385785E-2,2.1909736E-1,1.0630011E-1,-2.8188938E-2,-7.257942E-3,1.9104362E-1,-1.9243313E-2,-1.9445233E-1,5.9131827E-2,2.1394663E-1,1.02928214E-1,-9.793105E-2],"split_indices":[0,6,6,5,0,5,5,5,3,5,3,5,3,2,6,0,0,3,5,2,2,0,0,0,0,5,6,0,6,6,5,6,6,0,0,0,0,0,0,0,0,0,0,0,0,0,0,0,0,0,0],"split_type":[0,0,0,0,0,0,0,0,0,0,0,0,0,0,0,0,0,0,0,0,0,0,0,0,0,0,0,0,0,0,0,0,0,0,0,0,0,0,0,0,0,0,0,0,0,0,0,0,0,0,0],"sum_hessian":[1.2097968E2,1.543559E1,1.055441E2,1.3552055E1,1.8835346E0,9.985699E1,5.687105E0,1.1098961E1,2.4530945E0,9.374964E1,6.107348E0,3.0696099E0,2.617495E0,5.2339435E0,5.8650174E0,1.3958977E0,1.0571966E0,8.0660774E1,1.3088872E1,3.2923808E0,2.8149674E0,2.0022824E0,1.0673274E0,1.4790307E0,1.1384643E0,2.162365E0,3.0715787E0,3.1809185E0,2.684099E0,7.5977036E1,4.683736E0,3.696595E0,9.392277E0,2.0873437E0,1.205037E0,1.3278308E0,1.4871366E0,1.1524563E0,1.0099087E0,1.0463549E0,2.0252237E0,1.2751325E0,1.4089663E0,7.471132E1,1.2657168E0,2.3168707E0,2.366865E0,2.2283726E0,1.4682224E0,5.1517816E0,4.240495E0],"tree_param":{"num_deleted":"0","num_feature":"7","num_nodes":"51","size_leaf_vector":"1"}},{"base_weights":[7.4687325E-3,-2.9141944E-2,2.4242194E-2,-1.7322642E-1,2.6143784E-2,3.968227E-2,-3.2718402E-1,-2.7095452E-1,1.02356575E-1,1.02004774E-1,-2.4338907E-1,9.1583E-2,-1.7289035E-2,4.6478804E-2,-1.912388E-1,-4.3540788E-1,-1.014332E-1,-5.6682292E-2,4.0331087E-1,-4.57029E-2,-1.3431795E-1,2.931906E-2,3.8486534E-1,2.2070064E-1,-4.9037118E-2,-2.2966292E-2,-2.034481E-1,9.001711E-2,-3.731526E-1,-3.0795395E-1,3.0905446E-1,1.6218466E-1,2.2161259E-1,-6.236644E-2,7.61413E-2,-4.1404593E-1,8.864876E-2,-8.2421534E-2,5.6583154E-1,-6.251046E-2,4.649059E-1,1.4713326E-2,-2.0547178E-1,-1.7302497E-1,-3.41448E-2,-8.547355E-3,-1.7539577E-1,1.3059086E-1,-1.528154E-2,-1.9862638E-1,1.5829325E-1,-3.6155418E-2,6.542929E-2,-2.450377E-1,7.318053E-2,1.7459436E-1,1.5174735E-2,2.3948798E-1,2.3760121E-2,1.7915878E-1,2.8144881E-2,-1.7491788E-2,4.0171478E-2,3.6203504E-2,-1.2997644E-1],"categories":[],"categories_nodes":[],"categories_segments":[],"categories_sizes":[],"default_left":[0,0,0,0,0,0,0,0,0,0,0,0,0,0,0,0,0,0,0,0,0,0,0,0,0,0,0,0,0,0,0,0,0,0,0,0,0,0,0,0,0,0,0,0,0,0,0,0,0,0,0,0,0,0,0,0,0,0,0,0,0,0,0,0,0],"id":27,"left_children":[1,3,5,7,9,11,13,15,-1,17,19,21,23,-1,-1,25,27,29,31,33,-1,35,37,39,41,-1,-1,-1,43,45,47,49,-1,-1,51,53,55,-1,57,-1,59,61,63,-1,-1,-1,-1,-1,-1,-1,-1,-1,-1,-1,-1,-1,-1,-1,-1,-1,-1,-1,-1,-1,-1],"loss_changes":[7.503876E-2,3.1110784E-1,4.6637422E-1,6.3557416E-1,6.113138E-1,2.4089146E-1,6.409979E-1,2.244761E-1,0E0,1.1267774E0,2.4594885E-1,7.6499087E-1,3.0869308E-1,0E0,0E0,3.4771198E-1,7.718354E-1,1.5655601E0,5.343003E-1,1.0407983E-1,0E0,9.875721E-1,1.0342282E0,6.021144E-1,3.580672E-1,0E0,0E0,0E0,1.483584E-1,7.554522E-1,3.4099334E-1,2.152744E0,0E0,0E0,1.1790815E-1,1.3765509E0,5.8474994E-1,0E0,6.272652E-1,0E0,1.10021174E-1,2.3606677E-1,8.230219E-1,0E0,0E0,0E0,0E0,0E0,0E0,0E0,0E0,0E0,0E0,0E0,0E0,0E0,0E0,0E0,0E0,0E0,0E0,0E0,0E0,0E0,0E0],"parents":[2147483647,0,0,1,1,2,2,3,3,4,4,5,5,6,6,7,7,9,9,10,10,11,11,12,12,15,15,16,16,17,17,18,18,19,19,21,21,22,22,23,23,24,24,28,28,29,29,30,30,31,31,34,34,35,35,36,36,38,38,40,40,41,41,42,42],"right_children":[2,4,6,8,10,12,14,16,-1,18,20,22,24,-1,-1,26,28,30,32,34,-1,36,38,40,42,-1,-1,-1,44,46,48,50,-1,-1,52,54,56,-1,58,-1,60,62,64,-1,-1,-1,-1,-1,-1,-1,-1,-1,-1,-1,-1,-1,-1,-1,-1,-1,-1,-1,-1,-1,-1],"split_conditions":[-6.68759E-1,9.963148E-1,1.8558012E0,-2.8762507E-1,-5.19617E-1,7.108088E-1,-7.5160897E-1,-9.836009E-1,1.02356575E-1,-7.5160897E-1,-1.013651E0,6.403428E-1,4.9215832E-1,4.6478804E-2,-1.912388E-1,-5.3284967E-1,7.098194E-1,-5.3284967E-1,-1.013651E0,-8.922995E-1,-1.3431795E-1,-7.2265786E-1,1.50489E-1,1.1043266E0,1.7663522E0,-2.2966292E-2,-2.034481E-1,9.001711E-2,-1.013651E0,-8.74519E-1,-9.836009E-1,1.5693058E0,2.2161259E-1,-6.236644E-2,1.5693058E0,1.3232436E0,1E0,-8.2421534E-2,-7.2265786E-1,-6.251046E-2,1.3232436E0,1.3232436E0,1.1043266E0,-1.7302497E-1,-3.41448E-2,-8.547355E-3,-1.7539577E-1,1.3059086E-1,-1.528154E-2,-1.9862638E-1,1.5829325E-1,-3.6155418E-2,6.542929E-2,-2.450377E-1,7.318053E-2,1.7459436E-1,1.5174735E-2,2.3948798E-1,2.3760121E-2,1.7915878E-1,2.8144881E-2,-1.7491788E-2,4.0171478E-2,3.6203504E-2,-1.2997644E-1],"split_indices":[2,0,0,5,5,2,5,5,0,5,2,5,6,0,0,6,0,6,2,3,0,0,6,5,3,0,0,0,2,6,5,0,0,0,0,3,1,0,0,0,3,3,5,0,0,0,0,0,0,0,0,0,0,0,0,0,0,0,0,0,0,0,0,0,0],"split_type":[0,0,0,0,0,0,0,0,0,0,0,0,0,0,0,0,0,0,0,0,0,0,0,0,0,0,0,0,0,0,0,0,0,0,0,0,0,0,0,0,0,0,0,0,0,0,0,0,0,0,0,0,0,0,0,0,0,0,0,0,0,0,0,0,0],"sum_hessian":[1.2004506E2,3.748684E1,8.255822E1,9.803605E0,2.7683235E1,7.993339E1,2.6248286E0,8.636186E0,1.1674188E0,2.208803E1,5.5952053E0,4.151018E1,3.842321E1,1.2238609E0,1.4009677E0,3.5874913E0,5.0486946E0,1.4999967E1,7.0880637E0,3.4658415E0,2.1293638E0,3.5148182E1,6.362001E0,3.8219E0,3.460131E1,1.9783363E0,1.6091549E0,1.99565E0,3.0530448E0,8.985002E0,6.0149646E0,4.986615E0,2.1014485E0,1.1838518E0,2.2819898E0,3.4426756E0,3.1705505E1,1.2581162E0,5.1038847E0,1.4394809E0,2.382419E0,2.52268E1,9.37451E0,1.024667E0,2.0283775E0,5.0189157E0,3.9660864E0,4.2983494E0,1.7166153E0,1.2824546E0,3.7041607E0,1.0199798E0,1.26201E0,1.9858106E0,1.4568648E0,1.2476443E0,3.045786E1,3.0205379E0,2.0833468E0,1.3071342E0,1.0752848E0,1.5960117E1,9.266683E0,4.048248E0,5.326262E0],"tree_param":{"num_deleted":"0","num_feature":"7","num_nodes":"65","size_leaf_vector":"1"}},{"base_weights":[3.5119464E-3,7.7992365E-2,-7.749412E-3,1.8241125E-1,-1.4863988E-2,-1.9659165E-2,1.3130885E-1,-4.2326215E-1,1.3470717E-1,-6.3804775E-3,-1.7991848E-1,-7.297009E-2,4.7664577E-1,-1.546744E-1,-2.929638E-2,4.151307E-1,-2.3357521E-1,-2.6187548E-2,2.1145257E-1,4.841295E-2,-3.1734753E-1,2.6192677E-1,-3.4318206E-1,4.2174406E-2,1.783221E-1,-6.9262505E-2,5.7415426E-1,-5.745066E-1,6.5204725E-2,4.0710317E-3,-2.709699E-1,5.5666596E-1,-4.6821926E-2,-2.7969865E-2,-1.9044395E-1,1.6262227E-1,-2.8716138E-2,-1.5952995E-1,-8.854413E-3,2.2722365E-1,3.1067051E-2,-2.2420448E-1,-5.3354975E-2,-4.37627E-3,1.6281496E-1,-3.1687194E-3,-1.996249E-1,3.6794603E-2,2.1061987E-1,-8.954753E-2,1.1094015E-1,-1.0567449E-1,6.1899163E-2],"categories":[],"categories_nodes":[],"categories_segments":[],"categories_sizes":[],"default_left":[0,0,0,0,0,0,0,0,0,0,0,0,0,0,0,0,0,0,0,0,0,0,0,0,0,0,0,0,0,0,0,0,0,0,0,0,0,0,0,0,0,0,0,0,0,0,0,0,0,0,0,0,0],"id":28,"left_children":[1,3,5,-1,7,9,11,13,15,17,19,21,23,-1,-1,25,27,29,31,-1,33,35,37,-1,-1,-1,39,41,-1,43,45,47,49,51,-1,-1,-1,-1,-1,-1,-1,-1,-1,-1,-1,-1,-1,-1,-1,-1,-1,-1,-1],"loss_changes":[1.0153971E-1,7.914028E-1,1.7721274E-1,0E0,9.428906E-1,2.0738983E-1,6.307901E-1,7.376778E-2,1.2715554E0,4.0047294E-1,4.0119028E-1,6.487483E-1,4.596436E-2,0E0,0E0,8.3286595E-1,9.790863E-1,6.29156E-1,7.161131E-1,0E0,5.019082E-1,3.8502368E-1,2.1209064E-1,0E0,0E0,0E0,4.1806555E-1,1.0283196E-1,0E0,7.7627796E-1,9.5270103E-1,1.278125E-1,6.71297E-1,3.7699932E-1,0E0,0E0,0E0,0E0,0E0,0E0,0E0,0E0,0E0,0E0,0E0,0E0,0E0,0E0,0E0,0E0,0E0,0E0,0E0],"parents":[2147483647,0,0,1,1,2,2,4,4,5,5,6,6,7,7,8,8,9,9,10,10,11,11,12,12,15,15,16,16,17,17,18,18,20,20,21,21,22,22,26,26,27,27,29,29,30,30,31,31,32,32,33,33],"right_children":[2,4,6,-1,8,10,12,14,16,18,20,22,24,-1,-1,26,28,30,32,-1,34,36,38,-1,-1,-1,40,42,-1,44,46,48,50,52,-1,-1,-1,-1,-1,-1,-1,-1,-1,-1,-1,-1,-1,-1,-1,-1,-1,-1,-1],"split_conditions":[-1.0091534E0,4.9215832E-1,1.7454847E0,1.8241125E-1,8.338277E-1,1.4005927E0,1.5171664E0,1.4005927E0,1.5683106E0,1.5683106E0,8.723347E-1,8.338277E-1,1.3232436E0,-1.546744E-1,-2.929638E-2,4.083508E-1,1.8003025E0,8.338277E-1,1.8003025E0,4.841295E-2,1.5171664E0,1.7663522E0,1.1043266E0,4.2174406E-2,1.783221E-1,-6.9262505E-2,1.4005927E0,1.0557008E0,6.5204725E-2,1.0557008E0,1.0557008E0,1.0557008E0,1.3232436E0,8.338277E-1,-1.9044395E-1,1.6262227E-1,-2.8716138E-2,-1.5952995E-1,-8.854413E-3,2.2722365E-1,3.1067051E-2,-2.2420448E-1,-5.3354975E-2,-4.37627E-3,1.6281496E-1,-3.1687194E-3,-1.996249E-1,3.6794603E-2,2.1061987E-1,-8.954753E-2,1.1094015E-1,-1.0567449E-1,6.1899163E-2],"split_indices":[0,6,2,0,6,2,6,2,5,5,5,6,3,0,0,5,5,6,5,0,6,3,5,0,0,0,2,2,0,2,2,2,3,6,0,0,0,0,0,0,0,0,0,0,0,0,0,0,0,0,0,0,0],"split_type":[0,0,0,0,0,0,0,0,0,0,0,0,0,0,0,0,0,0,0,0,0,0,0,0,0,0,0,0,0,0,0,0,0,0,0,0,0,0,0,0,0,0,0,0,0,0,0,0,0,0,0,0,0],"sum_hessian":[1.19340065E2,1.4895892E1,1.0444417E2,1.3934741E0,1.3502418E1,9.699554E1,7.448632E0,3.1289914E0,1.0373426E1,9.0533936E1,6.4616027E0,5.1757135E0,2.272918E0,1.9832414E0,1.1457499E0,5.8169684E0,4.5564585E0,8.379447E1,6.739462E0,1.8049324E0,4.6566706E0,2.324912E0,2.8508015E0,1.1590447E0,1.1138732E0,1.0598168E0,4.7571516E0,2.4386203E0,2.117838E0,7.545102E1,8.343451E0,2.3898406E0,4.3496213E0,3.0053363E0,1.651334E0,1.014545E0,1.3103671E0,1.3461459E0,1.5046555E0,2.9852E0,1.7719517E0,1.0827135E0,1.3559068E0,7.386526E1,1.5857631E0,5.644088E0,2.699363E0,1.0623294E0,1.3275112E0,2.888378E0,1.4612436E0,1.0494555E0,1.9558808E0],"tree_param":{"num_deleted":"0","num_feature":"7","num_nodes":"53","size_leaf_vector":"1"}},{"base_weights":[6.0685803E-3,-2.9167196E-2,2.2231957E-2,-1.4759402E-1,1.5806807E-2,3.519679E-2,-2.867673E-1,4.6813656E-2,-4.0767103E-1,7.50133E-2,-2.0256859E-1,1.1506709E-1,9.002058E-3,3.8994845E-2,-1.7534162E-1,-1.5446967E-1,2.6843274E-1,-6.2583014E-3,-2.0281477E-1,